{"learner":{"attributes":{"best_iteration":"499","best_ntree_limit":"500"},"feature_names":["Gender","Age","Driving_License","Region_Code","Previously_Insured","Vehicle_Age","Vehicle_Damage","Annual_Premium","Policy_Sales_Channel","Vintage"],"feature_types":["float","float","float","float","float","float","float","float","float","float"],"gradient_booster":{"model":{"gbtree_model_param":{"num_trees":"500","size_leaf_vector":"0"},"tree_info":[0,0,0,0,0,0,0,0,0,0,0,0,0,0,0,0,0,0,0,0,0,0,0,0,0,0,0,0,0,0,0,0,0,0,0,0,0,0,0,0,0,0,0,0,0,0,0,0,0,0,0,0,0,0,0,0,0,0,0,0,0,0,0,0,0,0,0,0,0,0,0,0,0,0,0,0,0,0,0,0,0,0,0,0,0,0,0,0,0,0,0,0,0,0,0,0,0,0,0,0,0,0,0,0,0,0,0,0,0,0,0,0,0,0,0,0,0,0,0,0,0,0,0,0,0,0,0,0,0,0,0,0,0,0,0,0,0,0,0,0,0,0,0,0,0,0,0,0,0,0,0,0,0,0,0,0,0,0,0,0,0,0,0,0,0,0,0,0,0,0,0,0,0,0,0,0,0,0,0,0,0,0,0,0,0,0,0,0,0,0,0,0,0,0,0,0,0,0,0,0,0,0,0,0,0,0,0,0,0,0,0,0,0,0,0,0,0,0,0,0,0,0,0,0,0,0,0,0,0,0,0,0,0,0,0,0,0,0,0,0,0,0,0,0,0,0,0,0,0,0,0,0,0,0,0,0,0,0,0,0,0,0,0,0,0,0,0,0,0,0,0,0,0,0,0,0,0,0,0,0,0,0,0,0,0,0,0,0,0,0,0,0,0,0,0,0,0,0,0,0,0,0,0,0,0,0,0,0,0,0,0,0,0,0,0,0,0,0,0,0,0,0,0,0,0,0,0,0,0,0,0,0,0,0,0,0,0,0,0,0,0,0,0,0,0,0,0,0,0,0,0,0,0,0,0,0,0,0,0,0,0,0,0,0,0,0,0,0,0,0,0,0,0,0,0,0,0,0,0,0,0,0,0,0,0,0,0,0,0,0,0,0,0,0,0,0,0,0,0,0,0,0,0,0,0,0,0,0,0,0,0,0,0,0,0,0,0,0,0,0,0,0,0,0,0,0,0,0,0,0,0,0,0,0,0,0,0,0,0,0,0,0,0,0,0,0,0,0,0,0,0,0,0,0,0,0,0,0,0,0,0,0,0,0,0,0,0,0,0,0,0,0,0,0,0,0,0,0,0,0,0,0,0,0,0,0,0,0,0,0,0,0,0,0,0,0,0,0,0,0],"trees":[{"base_weights":[-0E0,7.0466995E-1,-1.9761004E0,-2.1743682E-1,8.614453E-1,5.1243246E-1,-3.3437392E-1,9.621985E-1,2.9974937E-1,1.9027483E-1,8.4210527E-1,-2.2898799E-1,-7.7757686E-1,8.4690556E-2,9.7023827E-1,4.6378377E-1,3.4076016E-2],"categories":[],"categories_nodes":[],"categories_segments":[],"categories_sizes":[],"default_left":[true,true,false,true,true,true,true,true,true,false,false,false,false,false,false,false,false],"id":0,"left_children":[1,3,-1,5,7,9,11,13,15,-1,-1,-1,-1,-1,-1,-1,-1],"loss_changes":[2.1722283E4,1.6625239E3,0E0,1.428532E2,5.5591846E2,2.440004E1,6.715059E1,5.8706543E1,6.519014E1,0E0,0E0,0E0,0E0,0E0,0E0,0E0,0E0],"parents":[2147483647,0,0,1,1,3,3,4,4,5,5,6,6,7,7,8,8],"right_children":[2,4,-1,6,8,10,12,14,16,-1,-1,-1,-1,-1,-1,-1,-1],"split_conditions":[5E-1,2.65E1,-5.928301E-2,1.415E2,5.85E1,2.35E1,1.595E2,1.5E0,6.75E1,5.708245E-3,2.5263157E-2,-6.8696397E-3,-2.3327306E-2,2.5407167E-3,2.9107148E-2,1.3913513E-2,1.0222804E-3],"split_indices":[4,1,0,8,1,1,8,3,1,0,0,0,0,0,0,0,0],"split_type":[0,0,0,0,0,0,0,0,0,0,0,0,0,0,0,0,0],"sum_hessian":[1.55975E4,1.1498E4,4.0995E3,1.67075E3,9.82725E3,2.3025E2,1.4405E3,8.332E3,1.49525E3,1.1725E2,1.13E2,1.165E3,2.755E2,7.575E1,8.25625E3,9.24E2,5.7125E2],"tree_param":{"num_deleted":"0","num_feature":"10","num_nodes":"17","size_leaf_vector":"0"}},{"base_weights":[-4.3235627E-6,-1.8052976E0,7.3978454E-1,-1.0989091E0,-1.9299918E0,7.9605246E-1,-1.7317494E0,-1.2614146E0,-3.88456E-1,-3.139164E-2,9.2138225E-1,-1.7416807E0,-6.236068E-1,-1.2117867E0,-1.7436838E0,1.6772825E-1,-1.1775516E0,8.9671336E-2,-6.521311E-1,1.013103E0,3.488184E-1,-1.8938927E-1,-7.648436E-1],"categories":[],"categories_nodes":[],"categories_segments":[],"categories_sizes":[],"default_left":[true,true,true,true,false,true,true,true,true,true,true,false,true,false,false,false,false,false,false,false,false,false,false],"id":1,"left_children":[1,3,5,7,-1,9,11,13,15,17,19,-1,21,-1,-1,-1,-1,-1,-1,-1,-1,-1,-1],"loss_changes":[2.0826395E4,3.971377E2,1.539645E3,7.8296326E1,0E0,1.1216562E3,1.6270752E0,1.1168762E1,5.658491E1,1.0704668E2,4.9293115E2,0E0,8.497679E-2,0E0,0E0,0E0,0E0,0E0,0E0,0E0,0E0,0E0,0E0],"parents":[2147483647,0,0,1,1,2,2,3,3,5,5,6,6,7,7,8,8,9,9,10,10,12,12],"right_children":[2,4,6,8,-1,10,12,14,16,18,20,-1,22,-1,-1,-1,-1,-1,-1,-1,-1,-1,-1],"split_conditions":[5E-1,5E-1,5E-1,1.525E2,-5.7899754E-2,2.65E1,1.615E2,6.15E1,1.59E2,1.595E2,5.95E1,-5.2250423E-2,3.7E1,-3.6353603E-2,-5.231051E-2,5.0318474E-3,-3.5326548E-2,2.69014E-3,-1.9563932E-2,3.039309E-2,1.0464552E-2,-5.681678E-3,-2.2945307E-2],"split_indices":[6,4,4,8,0,1,8,1,8,8,1,0,1,0,0,0,0,0,0,0,0,0,0],"split_type":[0,0,0,0,0,0,0,0,0,0,0,0,0,0,0,0,0,0,0,0,0,0,0],"sum_hessian":[1.5592036E4,4.531779E3,1.1060258E4,6.8141284E2,3.850366E3,1.0814724E4,2.4553421E2,5.5393335E2,1.2747948E2,1.4226892E3,9.392034E3,2.4278662E2,2.7475853E0,5.0543436E2,4.8499012E1,7.523703E1,5.2242447E1,1.1912207E3,2.3146852E2,8.094571E3,1.2974633E3,1.2489023E0,1.4986829E0],"tree_param":{"num_deleted":"0","num_feature":"10","num_nodes":"23","size_leaf_vector":"0"}},{"base_weights":[-3.1675165E-5,6.6346043E-1,-1.8657936E0,-1.6789249E-1,8.182046E-1,6.358424E-1,-2.5092685E-1,9.1616195E-1,2.8117305E-1,6.7369837E-1,-1.2145615E0,-6.953067E-1,-1.435326E-1,5.8750615E-2,9.241003E-1,4.3892404E-1,2.5723623E-2],"categories":[],"categories_nodes":[],"categories_segments":[],"categories_sizes":[],"default_left":[true,true,false,true,true,true,true,true,true,false,false,false,false,false,false,false,false],"id":2,"left_children":[1,3,-1,5,7,9,11,13,15,-1,-1,-1,-1,-1,-1,-1,-1],"loss_changes":[1.9284336E4,1.4784839E3,0E0,1.2056375E2,5.0940967E2,1.2671745E1,7.797286E1,5.571289E1,6.0274765E1,0E0,0E0,0E0,0E0,0E0,0E0,0E0,0E0],"parents":[2147483647,0,0,1,1,3,3,4,4,5,5,6,6,7,7,8,8],"right_children":[2,4,-1,6,8,10,12,14,16,-1,-1,-1,-1,-1,-1,-1,-1],"split_conditions":[5E-1,2.75E1,-5.5973805E-2,5E-1,5.85E1,4.85E1,2.15E1,1.5E0,6.75E1,2.021095E-2,-3.6436845E-2,-2.08592E-2,-4.305978E-3,1.7625184E-3,2.7723007E-2,1.3167721E-2,7.7170867E-4],"split_indices":[4,1,0,5,1,3,1,3,1,0,0,0,0,0,0,0,0],"split_type":[0,0,0,0,0,0,0,0,0,0,0,0,0,0,0,0,0],"sum_hessian":[1.5576036E4,1.1490493E4,4.0855425E3,1.803143E3,9.687351E3,1.6821744E2,1.6349255E3,8.192322E3,1.4950282E3,1.6546815E2,2.7492702E0,3.1714734E2,1.3177782E3,7.522957E1,8.117093E3,9.2381464E2,5.7121356E2],"tree_param":{"num_deleted":"0","num_feature":"10","num_nodes":"17","size_leaf_vector":"0"}},{"base_weights":[-5.5308414E-5,-1.7154015E0,6.9987905E-1,-1.7529337E0,-1.6616508E0,-8.167268E-2,8.3484095E-1,-1.5680215E0,-1.7281855E0,-4.0382493E-1,1.12119965E-1,9.344529E-1,2.959792E-1,-1.6877056E0,-1.8092211E0,-8.508077E-1,-3.1622744E-1,-6.9830395E-2,2.8227556E-1,9.798208E-1,7.530029E-1,4.5223996E-1,4.320807E-2],"categories":[],"categories_nodes":[],"categories_segments":[],"categories_sizes":[],"default_left":[true,true,true,false,true,true,true,false,true,true,true,true,true,false,false,false,false,false,false,false,false,false,false],"id":3,"left_children":[1,3,5,-1,7,9,11,-1,13,15,17,19,21,-1,-1,-1,-1,-1,-1,-1,-1,-1,-1],"loss_changes":[1.8673627E4,6.1796875E0,1.1651934E3,0E0,8.95459E0,1.0165084E2,5.05333E2,0E0,5.0512695E-1,2.3674568E1,3.1505196E1,6.470215E1,5.8084305E1,0E0,0E0,0E0,0E0,0E0,0E0,0E0,0E0,0E0,0E0],"parents":[2147483647,0,0,1,1,2,2,4,4,5,5,6,6,8,8,9,9,10,10,11,11,12,12],"right_children":[2,4,6,-1,8,10,12,-1,14,16,18,20,22,-1,-1,-1,-1,-1,-1,-1,-1,-1,-1],"split_conditions":[5E-1,3.05E1,2.75E1,-5.2588012E-2,4.45E1,2.25E1,5.85E1,-4.7040645E-2,6.25E1,2.05E1,5E-1,5.05E1,6.75E1,-5.063117E-2,-5.4276634E-2,-2.552423E-2,-9.486822E-3,-2.0949119E-3,8.468267E-3,2.9394623E-2,2.2590086E-2,1.3567198E-2,1.2962421E-3],"split_indices":[6,1,1,0,1,1,1,0,1,1,0,1,1,0,0,0,0,0,0,0,0,0,0],"split_type":[0,0,0,0,0,0,0,0,0,0,0,0,0,0,0,0,0,0,0,0,0,0,0],"sum_hessian":[1.5551192E4,4.506225E3,1.1044967E4,2.6348167E3,1.8714088E3,1.6264926E3,9.418475E3,7.876197E2,1.0837891E3,6.105153E2,1.01597723E3,7.9484243E3,1.4700499E3,7.373068E2,3.464823E2,9.8612686E1,5.1190265E2,4.9125705E2,5.2472015E2,6.3550684E3,1.5933561E3,9.079652E2,5.620848E2],"tree_param":{"num_deleted":"0","num_feature":"10","num_nodes":"23","size_leaf_vector":"0"}},{"base_weights":[-8.684984E-5,-9.957557E-1,3.6711177E-1,4.568951E-1,-1.0809032E0,4.7634932E-1,-2.2599308E-1,1.9016084E-1,6.3252085E-1,-1.1998414E0,-9.3555075E-1,4.3002504E-1,1.0142365E0,-3.7910423E-1,5.038759E-1,3.6961135E-1,-2.3408353E-2,7.7580744E-1,4.38187E-1,-9.186434E-1,-1.2350998E0,-9.593102E-1,-5.95462E-1,4.848227E-1,-8.6686775E-2,7.734214E-1,1.1475614E0,-2.2294445E-1,-6.7735434E-1,1.5773277E-1,5.9412706E-1],"categories":[],"categories_nodes":[],"categories_segments":[],"categories_sizes":[],"default_left":[true,true,true,true,true,true,true,true,true,true,true,true,true,true,true,false,false,false,false,false,false,false,false,false,false,false,false,false,false,false,false],"id":4,"left_children":[1,3,5,7,9,11,13,15,17,19,21,23,25,27,29,-1,-1,-1,-1,-1,-1,-1,-1,-1,-1,-1,-1,-1,-1,-1,-1],"loss_changes":[5.6749077E3,5.17771E2,7.3480334E2,1.0760159E1,6.717871E1,2.3818066E2,1.9736334E2,3.5975208E0,3.5478249E0,2.0373047E1,1.3831909E1,2.4974194E2,2.3468933E1,6.7801865E1,9.477509E0,0E0,0E0,0E0,0E0,0E0,0E0,0E0,0E0,0E0,0E0,0E0,0E0,0E0,0E0,0E0,0E0],"parents":[2147483647,0,0,1,1,2,2,3,3,4,4,5,5,6,6,7,7,8,8,9,9,10,10,11,11,12,12,13,13,14,14],"right_children":[2,4,6,8,10,12,14,16,18,20,22,24,26,28,30,-1,-1,-1,-1,-1,-1,-1,-1,-1,-1,-1,-1,-1,-1,-1,-1],"split_conditions":[2.85E1,5E-1,5.95E1,2.35E1,5E-1,1.5E0,1.5E0,3.12485E4,2.87005E4,1.4286E4,2.75E1,5E-1,3.37695E4,6.95E1,2.8099E4,1.1088341E-2,-7.022506E-4,2.3274222E-2,1.314561E-2,-2.7559303E-2,-3.7052993E-2,-2.8779304E-2,-1.786386E-2,1.4544681E-2,-2.6006033E-3,2.3202641E-2,3.4426842E-2,-6.6883336E-3,-2.032063E-2,4.731983E-3,1.7823812E-2],"split_indices":[1,5,1,1,0,5,5,7,7,7,1,5,7,1,7,0,0,0,0,0,0,0,0,0,0,0,0,0,0,0,0],"split_type":[0,0,0,0,0,0,0,0,0,0,0,0,0,0,0,0,0,0,0,0,0,0,0,0,0,0,0,0,0,0,0],"sum_hessian":[1.5519827E4,4.18106E3,1.1338767E4,2.3126263E2,3.9497974E3,9.575379E3,1.7633883E3,9.264278E1,1.3861986E2,2.1682888E3,1.7815087E3,8.817769E3,7.576104E2,1.4580093E3,3.0537906E2,4.9945587E1,4.269719E1,7.806713E1,6.0552723E1,2.445974E2,1.9236913E3,1.6634736E3,1.1803497E2,7.972356E3,8.4541205E2,2.7239844E2,4.8521198E2,9.581056E2,4.9990372E2,6.3724007E1,2.4165504E2],"tree_param":{"num_deleted":"0","num_feature":"10","num_nodes":"31","size_leaf_vector":"0"}},{"base_weights":[-9.13381E-5,-1.6600794E0,6.742317E-1,-1.6947024E0,-1.3189336E0,-8.555202E-2,7.9430735E-1,-1.0242647E0,-1.6988782E0,-5.4260963E-1,-1.6440676E0,5.791275E-1,-1.9951984E-1,8.862837E-1,2.9017088E-1,-1.0066769E0,-3.1760415E-1,-1.6660311E0,-7.575961E-1,2.6735327E-1,8.9634657E-1,-7.755473E-2,-6.8613213E-1,9.2839175E-1,7.147051E-1,4.3780613E-1,5.1406708E-2],"categories":[],"categories_nodes":[],"categories_segments":[],"categories_sizes":[],"default_left":[true,true,true,true,true,true,true,false,false,true,true,true,true,true,true,false,false,false,false,false,false,false,false,false,false,false,false],"id":5,"left_children":[1,3,5,7,9,11,13,-1,-1,15,17,19,21,23,25,-1,-1,-1,-1,-1,-1,-1,-1,-1,-1,-1,-1],"loss_changes":[1.7356875E4,5.0671875E1,1.0060488E3,9.634766E0,1.04420044E2,1.1417769E2,4.412627E2,0E0,0E0,1.2696152E1,4.4537354E0,2.158226E1,7.627557E1,5.7513184E1,5.181835E1,0E0,0E0,0E0,0E0,0E0,0E0,0E0,0E0,0E0,0E0,0E0,0E0],"parents":[2147483647,0,0,1,1,2,2,3,3,4,4,5,5,6,6,9,9,10,10,11,11,12,12,13,13,14,14],"right_children":[2,4,6,8,10,12,14,-1,-1,16,18,20,22,24,26,-1,-1,-1,-1,-1,-1,-1,-1,-1,-1,-1,-1],"split_conditions":[5E-1,1.535E2,2.65E1,5.5E0,1.585E2,1.415E2,5.85E1,-3.072794E-2,-5.0966345E-2,1.555E2,1.615E2,2.35E1,1.595E2,5.05E1,6.75E1,-3.0200306E-2,-9.528125E-3,-4.998093E-2,-2.2727882E-2,8.0205975E-3,2.6890397E-2,-2.326642E-3,-2.0583963E-2,2.7851753E-2,2.1441152E-2,1.3134183E-2,1.5422011E-3],"split_indices":[6,8,1,8,8,8,1,0,0,8,8,1,8,1,1,0,0,0,0,0,0,0,0,0,0,0,0],"split_type":[0,0,0,0,0,0,0,0,0,0,0,0,0,0,0,0,0,0,0,0,0,0,0,0,0,0,0],"sum_hessian":[1.5503957E4,4.4782764E3,1.1025681E4,4.0620486E3,4.162277E2,1.5047295E3,9.520951E3,2.6667816E1,4.0353809E3,1.2365204E2,2.9257565E2,2.1964447E2,1.2850851E3,8.051289E3,1.4696625E3,3.9242176E1,8.440987E1,2.8464383E2,7.9318323E0,1.1170228E2,1.0794219E2,1.0284679E3,2.566171E2,6.4611997E3,1.5900894E3,9.076197E2,5.620428E2],"tree_param":{"num_deleted":"0","num_feature":"10","num_nodes":"27","size_leaf_vector":"0"}},{"base_weights":[-1.2655562E-4,3.855103E-1,-6.1846054E-1,3.0479637E-1,7.9904264E-1,4.7339803E-1,-1.0432197E0,3.2911053E-1,-3.0075234E-1,-9.991974E-1,8.289698E-1,-1.0481701E0,7.656833E-1,-1.0612234E0,7.111034E-1,-6.4528733E-1,3.4051558E-1,-6.717529E-1,-1.7748842E-1,-7.879059E-1,-1.2956829E0,8.5586935E-1,1.6640641E-1,-9.4578665E-1,-1.1608189E0,7.2682506E-1,1.0881273E0,-1.1273794E0,-7.587985E-1,8.2539654E-1,-4.6675663E-2],"categories":[],"categories_nodes":[],"categories_segments":[],"categories_sizes":[],"default_left":[true,true,true,true,true,true,true,true,true,true,true,true,true,true,true,false,false,false,false,false,false,false,false,false,false,false,false,false,false,false,false],"id":6,"left_children":[1,3,5,7,9,11,13,15,17,19,21,23,25,27,29,-1,-1,-1,-1,-1,-1,-1,-1,-1,-1,-1,-1,-1,-1,-1,-1],"loss_changes":[3.6873733E3,3.176454E2,2.7552432E3,1.1744818E2,8.449707E1,7.409485E2,1.3582666E2,8.53797E1,1.397472E1,6.0188484E-1,2.7122803E1,1.9999695E0,1.6708618E1,8.3845215E1,3.8528728E0,0E0,0E0,0E0,0E0,0E0,0E0,0E0,0E0,0E0,0E0,0E0,0E0,0E0,0E0,0E0,0E0],"parents":[2147483647,0,0,1,1,2,2,3,3,4,4,5,5,6,6,7,7,8,8,9,9,10,10,11,11,12,12,13,13,14,14],"right_children":[2,4,6,8,10,12,14,16,18,20,22,24,26,28,30,-1,-1,-1,-1,-1,-1,-1,-1,-1,-1,-1,-1,-1,-1,-1,-1],"split_conditions":[1.505E2,5E-1,5E-1,4.75E1,1.5E0,1.535E2,1.615E2,1.5E0,2.25E1,2.035E2,4.65E1,1.715E2,1.615E2,1.525E2,4.2E1,-1.935862E-2,1.0215467E-2,-2.0152587E-2,-5.3246524E-3,-2.3637176E-2,-3.8870487E-2,2.567608E-2,4.992192E-3,-2.8373599E-2,-3.482457E-2,2.1804752E-2,3.2643817E-2,-3.382138E-2,-2.2763954E-2,2.4761895E-2,-1.4002699E-3],"split_indices":[8,5,5,3,8,8,8,3,8,9,3,9,8,8,3,0,0,0,0,0,0,0,0,0,0,0,0,0,0,0,0],"split_type":[0,0,0,0,0,0,0,0,0,0,0,0,0,0,0,0,0,0,0,0,0,0,0,0,0,0,0,0,0,0,0],"sum_hessian":[1.5461772E4,9.522958E3,5.9388145E3,7.9692446E3,1.5537135E3,1.663252E3,4.2755625E3,7.6620522E3,3.0719247E2,2.4904137E1,1.5288094E3,2.6760052E2,1.3956514E3,4.2325215E3,4.304103E1,8.800158E1,7.574051E3,7.550059E1,2.316919E2,1.6676825E1,8.227314E0,1.4688821E3,5.992733E1,1.4510997E2,1.2249054E2,1.2484526E3,1.4719875E2,3.4705945E3,7.6192725E2,3.732257E1,5.7184615E0],"tree_param":{"num_deleted":"0","num_feature":"10","num_nodes":"31","size_leaf_vector":"0"}},{"base_weights":[-1.4062967E-4,-1.6080076E0,6.4885235E-1,-9.7141486E-1,-1.7224259E0,7.0108515E-1,-1.6471863E0,-1.1237051E0,-3.0635676E-1,8.109626E-1,4.1599864E-1,-1.6563158E0,-6.1666006E-1,-1.0802759E0,-1.3874257E0,1.8047304E-1,-1.0050651E0,8.2623637E-1,3.5070303E-1,8.164755E-2,6.645307E-1,-1.0803227E0,4.7931284E-2],"categories":[],"categories_nodes":[],"categories_segments":[],"categories_sizes":[],"default_left":[true,true,true,true,false,true,true,true,true,true,true,false,true,false,false,false,false,false,false,false,false,false,false],"id":7,"left_children":[1,3,5,7,-1,9,11,13,15,17,19,-1,21,-1,-1,-1,-1,-1,-1,-1,-1,-1,-1],"loss_changes":[1.6114129E4,3.217793E2,1.3205806E3,6.841052E1,0E0,3.3664453E2,1.2836914E0,4.823242E0,4.367289E1,5.429004E1,2.4880609E2,0E0,1.2056766E0,0E0,0E0,0E0,0E0,0E0,0E0,0E0,0E0,0E0,0E0],"parents":[2147483647,0,0,1,1,2,2,3,3,5,5,6,6,7,7,8,8,9,9,10,10,12,12],"right_children":[2,4,6,8,-1,10,12,14,16,18,20,-1,22,-1,-1,-1,-1,-1,-1,-1,-1,-1,-1],"split_conditions":[5E-1,5E-1,5E-1,1.525E2,-5.1672775E-2,1.26E2,1.615E2,4.25E1,1.59E2,4.75E1,1.525E2,-4.968947E-2,3.2E1,-3.2408275E-2,-4.162277E-2,5.414191E-3,-3.0151952E-2,2.478709E-2,1.0521091E-2,2.4494266E-3,1.993592E-2,-3.2409683E-2,1.4379384E-3],"split_indices":[6,4,4,8,0,8,8,3,8,3,8,0,3,0,0,0,0,0,0,0,0,0,0],"split_type":[0,0,0,0,0,0,0,0,0,0,0,0,0,0,0,0,0,0,0,0,0,0,0],"sum_hessian":[1.5440469E4,4.439707E3,1.1000762E4,6.7784607E2,3.761861E3,1.075675E4,2.440117E2,5.5098706E2,1.2685902E2,7.762932E3,2.993818E3,2.4126706E2,2.7446365E0,4.7745642E2,7.353064E1,7.520271E1,5.16563E1,7.512823E3,2.5010883E2,1.2770828E3,1.7167355E3,1.2482387E0,1.4963979E0],"tree_param":{"num_deleted":"0","num_feature":"10","num_nodes":"23","size_leaf_vector":"0"}},{"base_weights":[-1.9101745E-4,-1.5718734E0,6.3043386E-1,-1.422914E0,-1.5979661E0,-6.913822E-2,7.413014E-1,-1.3542978E0,-1.5668153E0,-4.9301994E-1,5.4189373E-2,8.316295E-1,2.4784674E-1,-1.2295846E0,-1.4285495E0,-1.5934491E0,-8.9159745E-1,1.4248194E-1,-5.857386E-1,7.039716E-1,-2.9930333E-3,8.733878E-1,6.615749E-1,3.9130795E-1,1.62146E-2],"categories":[],"categories_nodes":[],"categories_segments":[],"categories_sizes":[],"default_left":[true,true,true,true,false,true,true,true,true,true,true,true,true,false,false,false,false,false,false,false,false,false,false,false,false],"id":8,"left_children":[1,3,5,7,-1,9,11,13,15,17,19,21,23,-1,-1,-1,-1,-1,-1,-1,-1,-1,-1,-1,-1],"loss_changes":[1.5254526E4,1.4855469E1,8.5194775E2,4.45459E0,0E0,7.862316E1,4.223999E2,2.4880981E0,2.3319702E0,2.0055191E1,4.330883E1,5.632959E1,4.8790512E1,0E0,0E0,0E0,0E0,0E0,0E0,0E0,0E0,0E0,0E0,0E0,0E0],"parents":[2147483647,0,0,1,1,2,2,3,3,5,5,6,6,7,7,8,8,9,9,10,10,11,11,12,12],"right_children":[2,4,6,8,-1,10,12,14,16,18,20,22,24,-1,-1,-1,-1,-1,-1,-1,-1,-1,-1,-1,-1],"split_conditions":[5E-1,1.5472E4,2.65E1,4.55E1,-4.793898E-2,2.15E1,5.85E1,5E-1,5E-1,5E-1,5E-1,5.05E1,6.75E1,-3.6887538E-2,-4.2856485E-2,-4.7803473E-2,-2.6747923E-2,4.274458E-3,-1.7572157E-2,2.1119148E-2,-8.9791E-5,2.6201634E-2,1.9847246E-2,1.1739238E-2,4.86438E-4],"split_indices":[6,7,1,1,0,1,1,5,5,5,5,1,1,0,0,0,0,0,0,0,0,0,0,0,0],"split_type":[0,0,0,0,0,0,0,0,0,0,0,0,0,0,0,0,0,0,0,0,0,0,0,0,0],"sum_hessian":[1.538886E4,4.406132E3,1.0982729E4,6.650389E2,3.741093E3,1.5024812E3,9.480247E3,4.5736523E2,2.0767369E2,3.3794693E2,1.1645342E3,8.012799E3,1.4674482E3,1.772373E2,2.8012793E2,1.9848457E2,9.189107E0,4.295982E1,2.949871E2,9.327776E1,1.0712565E3,6.4297793E3,1.5830193E3,9.0577045E2,5.6167773E2],"tree_param":{"num_deleted":"0","num_feature":"10","num_nodes":"25","size_leaf_vector":"0"}},{"base_weights":[-2.3356616E-4,5.707334E-1,-1.6511214E0,6.8158114E-1,3.0339518E-1,5.9413487E-1,7.0326453E-1,8.987834E-2,7.651755E-1,6.72959E-1,5.6211084E-1,7.9095435E-1,6.763515E-1,-8.843065E-2,2.7042615E-1,5.3802025E-1,8.825176E-1],"categories":[],"categories_nodes":[],"categories_segments":[],"categories_sizes":[],"default_left":[true,true,false,true,true,true,true,true,true,false,false,false,false,false,false,false,false],"id":9,"left_children":[1,3,-1,5,7,9,11,13,15,-1,-1,-1,-1,-1,-1,-1,-1],"loss_changes":[1.4454213E4,3.3743457E2,0E0,1.4852539E1,3.2938245E2,3.677185E0,1.4681885E1,7.361833E1,2.7681946E1,0E0,0E0,0E0,0E0,0E0,0E0,0E0,0E0],"parents":[2147483647,0,0,1,1,3,3,4,4,5,5,6,6,7,7,8,8],"right_children":[2,4,-1,6,8,10,12,14,16,-1,-1,-1,-1,-1,-1,-1,-1],"split_conditions":[5E-1,5E-1,-4.953364E-2,1.264E4,1.5E0,9.05E1,2.94075E4,5E-1,3.33855E4,2.0188771E-2,1.6863326E-2,2.372863E-2,2.0290544E-2,-2.6529194E-3,8.1127845E-3,1.6140608E-2,2.6475526E-2],"split_indices":[4,5,0,7,5,9,7,0,7,0,0,0,0,0,0,0,0],"split_type":[0,0,0,0,0,0,0,0,0,0,0,0,0,0,0,0,0],"sum_hessian":[1.5332369E4,1.1392779E4,3.9395898E3,8.0524175E3,3.3403618E3,1.6056077E3,6.4468096E3,2.2850164E3,1.0553455E3,4.580773E2,1.1475304E3,1.5072866E3,4.939523E3,1.1498927E3,1.1351237E3,3.613722E2,6.939733E2],"tree_param":{"num_deleted":"0","num_feature":"10","num_nodes":"17","size_leaf_vector":"0"}},{"base_weights":[-2.7376984E-4,-1.5108862E0,5.9783894E-1,-1.5008075E0,-1.6181625E0,-3.9606757E-2,7.0872813E-1,-1.4441781E0,-1.5300554E0,-3.378754E-1,1.3948445E-1,7.994802E-1,2.219416E-1,-1.0645733E0,-1.4748499E0,-1.5343262E0,-6.063843E-1,-7.7400243E-1,-2.5277337E-1,7.264984E-1,7.691208E-2,8.432241E-1,6.2482876E-1,3.612752E-1,-2.7151918E-3],"categories":[],"categories_nodes":[],"categories_segments":[],"categories_sizes":[],"default_left":[true,true,true,true,false,true,true,true,true,true,true,true,true,false,false,false,false,false,false,false,false,false,false,false,false],"id":10,"left_children":[1,3,5,7,-1,9,11,13,15,17,19,21,23,-1,-1,-1,-1,-1,-1,-1,-1,-1,-1,-1,-1],"loss_changes":[1.3802297E4,2.256836E0,7.735652E2,4.373047E0,0E0,8.671882E1,4.116289E2,1.4398193E1,9.342773E0,2.240834E1,3.7208275E1,5.949707E1,4.589531E1,0E0,0E0,0E0,0E0,0E0,0E0,0E0,0E0,0E0,0E0,0E0,0E0],"parents":[2147483647,0,0,1,1,2,2,3,3,5,5,6,6,7,7,8,8,9,9,10,10,11,11,12,12],"right_children":[2,4,6,8,-1,10,12,14,16,18,20,22,24,-1,-1,-1,-1,-1,-1,-1,-1,-1,-1,-1,-1],"split_conditions":[5E-1,6.15E1,2.75E1,5E-1,-4.8544873E-2,2.25E1,5.85E1,3.35E1,3.45E1,2.05E1,5E-1,5.05E1,6.75E1,-3.1937197E-2,-4.4245496E-2,-4.6029784E-2,-1.8191528E-2,-2.3220072E-2,-7.583201E-3,2.1794952E-2,2.3073624E-3,2.5296723E-2,1.8744862E-2,1.0838255E-2,-8.145575E-5],"split_indices":[6,1,1,5,0,1,1,1,1,1,5,1,1,0,0,0,0,0,0,0,0,0,0,0,0],"split_type":[0,0,0,0,0,0,0,0,0,0,0,0,0,0,0,0,0,0,0,0,0,0,0,0,0],"sum_hessian":[1.5274199E4,4.331897E3,1.0942302E4,3.9735693E3,3.583273E2,1.6215399E3,9.320763E3,1.3704653E3,2.603104E3,6.080209E2,1.01351904E3,7.855594E3,1.4651678E3,1.05124054E2,1.2653413E3,2.5904653E3,1.2638711E1,9.795101E1,5.100699E2,9.660665E1,9.169124E2,6.279082E3,1.5765127E3,9.03934E2,5.612338E2],"tree_param":{"num_deleted":"0","num_feature":"10","num_nodes":"25","size_leaf_vector":"0"}},{"base_weights":[-3.2028015E-4,5.4141414E-1,-1.5923598E0,-1.22490816E-1,6.552203E-1,4.539947E-1,-2.1518658E-1,7.3767316E-1,2.0093812E-1,1.5905254E-1,7.5654984E-1,-1.2012799E-1,-6.165903E-1,7.734709E-1,5.902197E-1,3.097122E-1,-6.471919E-2],"categories":[],"categories_nodes":[],"categories_segments":[],"categories_sizes":[],"default_left":[true,true,false,true,true,true,true,true,true,false,false,false,false,false,false,false,false],"id":11,"left_children":[1,3,-1,5,7,9,11,13,15,-1,-1,-1,-1,-1,-1,-1,-1],"loss_changes":[1.3118431E4,8.575508E2,0E0,8.8887535E1,3.6274023E2,2.044704E1,5.4569397E1,4.2824707E1,4.306631E1,0E0,0E0,0E0,0E0,0E0,0E0,0E0,0E0],"parents":[2147483647,0,0,1,1,3,3,4,4,5,5,6,6,7,7,8,8],"right_children":[2,4,-1,6,8,10,12,14,16,-1,-1,-1,-1,-1,-1,-1,-1],"split_conditions":[5E-1,2.65E1,-4.777079E-2,1.415E2,5.85E1,2.35E1,1.595E2,5.05E1,6.95E1,4.771576E-3,2.2696495E-2,-3.6038395E-3,-1.849771E-2,2.3204125E-2,1.770659E-2,9.291366E-3,-1.9415758E-3],"split_indices":[4,1,0,8,1,1,8,1,1,0,0,0,0,0,0,0,0],"split_type":[0,0,0,0,0,0,0,0,0,0,0,0,0,0,0,0,0],"sum_hessian":[1.5208436E4,1.1347726E4,3.86071E3,1.6605559E3,9.68717E3,2.2948224E2,1.4310737E3,8.198506E3,1.4886638E3,1.1697566E2,1.1250658E2,1.1581138E3,2.7295993E2,6.5935312E3,1.6049744E3,1.0560823E3,4.325815E2],"tree_param":{"num_deleted":"0","num_feature":"10","num_nodes":"17","size_leaf_vector":"0"}},{"base_weights":[-3.6640203E-4,-8.213121E-1,2.9647398E-1,-9.444043E-1,-6.769551E-1,3.9191696E-1,-2.1877158E-1,-6.133188E-1,-9.910072E-1,-6.5503794E-1,-1.3688451E0,4.7043722E-2,4.2272753E-1,-9.2478566E-2,-4.6588877E-1,-6.985102E-1,-2.7104586E-1,-1.0849819E0,-9.119518E-1,-8.218319E-1,-5.588723E-1,1.5377827E-1,-1.4921369E-1,4.4030905E-1,-4.716495E-2,-5.6841753E-2,-6.390633E-1,-3.9129943E-1,-7.817113E-1],"categories":[],"categories_nodes":[],"categories_segments":[],"categories_sizes":[],"default_left":[true,true,true,true,true,true,true,true,true,true,false,true,true,true,true,false,false,false,false,false,false,false,false,false,false,false,false,false,false],"id":12,"left_children":[1,3,5,7,9,11,13,15,17,19,-1,21,23,25,27,-1,-1,-1,-1,-1,-1,-1,-1,-1,-1,-1,-1,-1,-1],"loss_changes":[3.6896995E3,7.080835E1,5.46935E2,3.2839478E1,2.7219482E1,9.9676636E1,5.421647E1,7.6864777E0,1.3115845E1,2.8397888E1,0E0,1.6165174E1,7.117578E1,2.239928E1,1.3540108E1,0E0,0E0,0E0,0E0,0E0,0E0,0E0,0E0,0E0,0E0,0E0,0E0,0E0,0E0],"parents":[2147483647,0,0,1,1,2,2,3,3,4,4,5,5,6,6,7,7,8,8,9,9,11,11,12,12,13,13,14,14],"right_children":[2,4,6,8,10,12,14,16,18,20,-1,22,24,26,28,-1,-1,-1,-1,-1,-1,-1,-1,-1,-1,-1,-1,-1,-1],"split_conditions":[2.85E1,5E-1,5.95E1,1.4286E4,4.95E1,3.15E1,6.95E1,2.65E1,2.75E1,1.75E1,-4.1065354E-2,2.95E1,4.75E1,4.65E1,3.55E1,-2.0955306E-2,-8.131376E-3,-3.2549456E-2,-2.7358552E-2,-2.4654957E-2,-1.6766168E-2,4.613348E-3,-4.4764103E-3,1.3209271E-2,-1.4149485E-3,-1.7052526E-3,-1.91719E-2,-1.1738983E-2,-2.3451338E-2],"split_indices":[1,0,1,7,3,1,1,1,3,3,0,3,3,3,3,0,0,0,0,0,0,0,0,0,0,0,0,0,0],"split_type":[0,0,0,0,0,0,0,0,0,0,0,0,0,0,0,0,0,0,0,0,0,0,0,0,0,0,0,0,0],"sum_hessian":[1.5138967E4,4.0198496E3,1.1119117E4,2.1667424E3,1.8531072E3,9.38154E3,1.7375771E3,2.6910126E2,1.8976412E3,1.7980953E3,5.501192E1,7.6960596E2,8.611935E3,1.1508115E3,5.8676556E2,2.146374E2,5.446385E1,8.611962E2,1.0364451E3,6.5481274E2,1.1432826E3,4.9863815E2,2.709678E2,8.301392E3,3.1054242E2,1.0814087E3,6.940284E1,4.7647354E2,1.10292046E2],"tree_param":{"num_deleted":"0","num_feature":"10","num_nodes":"29","size_leaf_vector":"0"}},{"base_weights":[-3.8156958E-4,-1.4509128E0,5.6407684E-1,-1.3121195E0,-1.4754759E0,6.4760023E-1,3.5552236E-1,-1.3146168E0,2.5501117E-2,-1.4606909E0,-1.5243526E0,-1.9901122E-1,6.552196E-1,1.7732832E-1,7.063694E-1,-1.5525302E0,-1.298459E0,-1.4613011E0,-2.678638E-1,-4.5161184E-2,-6.080851E-1,6.694302E-1,2.5689057E-1,-1.512869E-2,3.0694124E-1,4.8374924E-1,8.217464E-1],"categories":[],"categories_nodes":[],"categories_segments":[],"categories_sizes":[],"default_left":[true,true,true,true,true,true,true,true,false,true,false,true,true,true,true,false,false,false,false,false,false,false,false,false,false,false,false],"id":13,"left_children":[1,3,5,7,9,11,13,15,-1,17,-1,19,21,23,25,-1,-1,-1,-1,-1,-1,-1,-1,-1,-1,-1,-1],"loss_changes":[1.2374384E4,1.2498047E1,1.8928589E2,2.1903076E0,3.6669922E-1,5.0234375E1,1.9452234E2,4.6142578E-1,0E0,1.6318359E0,0E0,4.3810787E0,4.3404053E1,5.154283E1,2.6529358E1,0E0,0E0,0E0,0E0,0E0,0E0,0E0,0E0,0E0,0E0,0E0,0E0],"parents":[2147483647,0,0,1,1,2,2,3,3,4,4,5,5,6,6,7,7,9,9,11,11,12,12,13,13,14,14],"right_children":[2,4,6,8,10,12,14,16,-1,18,-1,20,22,24,26,-1,-1,-1,-1,-1,-1,-1,-1,-1,-1,-1,-1],"split_conditions":[5E-1,1.5472E4,5E-1,1.5063E4,4.07E4,1.5E0,1.5E0,2.5E0,7.650335E-4,4.0672E4,-4.5730576E-2,2.295E2,4.75E1,2.75E1,3.33855E4,-4.6575904E-2,-3.895377E-2,-4.383903E-2,-8.035914E-3,-1.3548355E-3,-1.8242553E-2,2.0082906E-2,7.7067167E-3,-4.5386067E-4,9.208237E-3,1.45124765E-2,2.4652392E-2],"split_indices":[6,7,5,7,7,3,5,3,0,7,0,9,3,3,7,0,0,0,0,0,0,0,0,0,0,0,0],"split_type":[0,0,0,0,0,0,0,0,0,0,0,0,0,0,0,0,0,0,0,0,0,0,0,0,0,0,0],"sum_hessian":[1.5111483E4,4.232735E3,1.0878748E4,6.4463776E2,3.5880972E3,7.7663267E3,3.1124219E3,6.434536E2,1.1841096E0,2.7784954E3,8.096019E2,6.904797E1,7.697279E3,2.0650798E3,1.0473418E3,3.487358E1,6.0858E2,2.7768499E3,1.6455966E0,5.0983723E1,1.8064249E1,7.431477E3,2.6580188E2,8.314205E2,1.2336594E3,3.5928787E2,6.8805396E2],"tree_param":{"num_deleted":"0","num_feature":"10","num_nodes":"27","size_leaf_vector":"0"}},{"base_weights":[-4.327219E-4,5.110805E-1,-1.5353806E0,-8.414278E-1,5.9613717E-1,-1.5167187E0,-1.5733813E0,-7.927932E-1,-1.4015319E0,-4.7747694E-2,6.7086864E-1,-1.4799591E0,-7.710533E-1,-3.5819054E-1,7.473587E-2,7.4404335E-1,2.5327614E-1],"categories":[],"categories_nodes":[],"categories_segments":[],"categories_sizes":[],"default_left":[true,true,true,true,true,false,false,true,false,true,true,false,false,false,false,false,false],"id":14,"left_children":[1,3,5,7,9,-1,-1,11,-1,13,15,-1,-1,-1,-1,-1,-1],"loss_changes":[1.1811092E4,1.2985122E3,2.8027344E-1,1.7085663E1,5.1086353E2,0E0,0E0,8.075256E0,0E0,4.2041256E1,2.9047754E2,0E0,0E0,0E0,0E0,0E0,0E0],"parents":[2147483647,0,0,1,1,2,2,3,3,4,4,7,7,9,9,10,10],"right_children":[2,4,6,8,10,-1,-1,12,-1,14,16,-1,-1,-1,-1,-1,-1],"split_conditions":[5E-1,5E-1,3.85E1,6.15E1,2.45E1,-4.550156E-2,-4.720144E-2,2.5E0,-4.204596E-2,2.15E1,5.85E1,-4.4398773E-2,-2.31316E-2,-1.0745716E-2,2.2420762E-3,2.23213E-2,7.598284E-3],"split_indices":[4,6,1,1,1,0,0,3,0,1,1,0,0,0,0,0,0],"split_type":[0,0,0,0,0,0,0,0,0,0,0,0,0,0,0,0,0],"sum_hessian":[1.5041178E4,1.1282134E4,3.759044E3,6.6700604E2,1.0615128E4,2.5484395E3,1.2106045E3,6.1593866E2,5.1067352E1,1.1039423E3,9.511186E3,1.683187E1,5.991068E2,3.1178296E2,7.921593E2,8.092377E3,1.4188083E3],"tree_param":{"num_deleted":"0","num_feature":"10","num_nodes":"17","size_leaf_vector":"0"}},{"base_weights":[-4.926757E-4,-1.3982008E0,5.333747E-1,-1.3883703E0,-1.5027856E0,-1.9557435E-2,6.3045913E-1,-1.3403996E0,-1.4136276E0,-2.9328433E-1,1.4442284E-1,7.134531E-1,1.901124E-1,-9.5568264E-1,-1.3717691E0,-1.417775E0,-5.5861634E-1,-7.0852697E-1,-2.126516E-1,6.859791E-1,8.68508E-2,7.561952E-1,5.4319537E-1,3.1838983E-1,-1.6118344E-2],"categories":[],"categories_nodes":[],"categories_segments":[],"categories_sizes":[],"default_left":[true,true,true,true,false,true,true,true,true,true,true,true,true,false,false,false,false,false,false,false,false,false,false,false,false],"id":15,"left_children":[1,3,5,7,-1,9,11,13,15,17,19,21,23,-1,-1,-1,-1,-1,-1,-1,-1,-1,-1,-1,-1],"loss_changes":[1.1164701E4,2.1655273E0,5.812092E2,2.7011719E0,0E0,7.266909E1,3.364475E2,1.4711426E1,7.95459E0,2.0156292E1,3.1509653E1,5.5979248E1,3.8679382E1,0E0,0E0,0E0,0E0,0E0,0E0,0E0,0E0,0E0,0E0,0E0,0E0],"parents":[2147483647,0,0,1,1,2,2,3,3,5,5,6,6,7,7,8,8,9,9,10,10,11,11,12,12],"right_children":[2,4,6,8,-1,10,12,14,16,18,20,22,24,-1,-1,-1,-1,-1,-1,-1,-1,-1,-1,-1,-1],"split_conditions":[5E-1,6.15E1,2.75E1,5E-1,-4.5083568E-2,2.25E1,5.85E1,3.35E1,3.45E1,2.05E1,5E-1,5.05E1,6.75E1,-2.8670479E-2,-4.115307E-2,-4.253325E-2,-1.675849E-2,-2.1255808E-2,-6.3795475E-3,2.0579373E-2,2.605524E-3,2.2685856E-2,1.6295861E-2,9.551695E-3,-4.835503E-4],"split_indices":[6,1,1,5,0,1,1,1,1,1,5,1,1,0,0,0,0,0,0,0,0,0,0,0,0],"split_type":[0,0,0,0,0,0,0,0,0,0,0,0,0,0,0,0,0,0,0,0,0,0,0,0,0],"sum_hessian":[1.4960262E4,4.1344136E3,1.0825849E4,3.7922358E3,3.421777E2,1.6170332E3,9.208815E3,1.3266444E3,2.4655916E3,6.055013E2,1.01153186E3,7.747913E3,1.460902E3,1.0239016E2,1.2242543E3,2.4530342E3,1.255723E1,9.719241E1,5.0830887E2,9.615229E1,9.153796E2,6.19041E3,1.5575029E3,9.003389E2,5.6056305E2],"tree_param":{"num_deleted":"0","num_feature":"10","num_nodes":"25","size_leaf_vector":"0"}},{"base_weights":[-5.4119714E-4,-7.514082E-1,2.6730543E-1,1.912014E-1,-8.469468E-1,3.604769E-1,-1.8299428E-1,-1.3731962E-1,5.300934E-1,-8.6363244E-1,6.405228E-1,4.2623532E-1,1.2677063E-1,-6.887867E-2,-4.383745E-1,-4.8606732E-1,1.0522823E-1,-2.0130375E-1,6.0195607E-1,-9.233911E-1,-6.106149E-1,3.7642E-1,1.1265601E0,6.3186884E-1,3.7326664E-1,-7.1759635E-1,5.9725696E-1,-1.03570506E-1,3.025415E-1,-4.7412705E-1,3.555547E-1],"categories":[],"categories_nodes":[],"categories_segments":[],"categories_sizes":[],"default_left":[true,true,true,true,true,true,true,true,true,true,true,true,true,true,true,false,false,false,false,false,false,false,false,false,false,false,false,false,false,false,false],"id":16,"left_children":[1,3,5,7,9,11,13,15,17,19,21,23,25,27,29,-1,-1,-1,-1,-1,-1,-1,-1,-1,-1,-1,-1,-1,-1,-1,-1],"loss_changes":[2.9930532E3,3.5254077E2,4.6028107E2,4.0254276E1,8.873657E1,1.3962756E2,5.479348E1,1.5619944E1,9.46941E0,5.256787E1,4.70891E0,7.701965E1,7.938629E2,1.6800148E1,1.6654793E1,0E0,0E0,0E0,0E0,0E0,0E0,0E0,0E0,0E0,0E0,0E0,0E0,0E0,0E0,0E0,0E0],"parents":[2147483647,0,0,1,1,2,2,3,3,4,4,5,5,6,6,7,7,8,8,9,9,10,10,11,11,12,12,13,13,14,14],"right_children":[2,4,6,8,10,12,14,16,18,20,22,24,26,28,30,-1,-1,-1,-1,-1,-1,-1,-1,-1,-1,-1,-1,-1,-1,-1,-1],"split_conditions":[2.85E1,1.435E2,5.85E1,1.23E2,1.615E2,1.245E2,6.95E1,2.35E1,2.15E1,1.525E2,2.45E1,3.85E1,1.525E2,1.53E2,1.545E2,-1.4582019E-2,3.1568469E-3,-6.0391123E-3,1.8058682E-2,-2.7701732E-2,-1.8318446E-2,1.1292599E-2,3.3796802E-2,1.8956065E-2,1.1197999E-2,-2.152789E-2,1.7917708E-2,-3.1071152E-3,9.076244E-3,-1.4223811E-2,1.06666405E-2],"split_indices":[1,8,1,8,8,8,1,1,1,8,1,1,8,8,8,0,0,0,0,0,0,0,0,0,0,0,0,0,0,0,0],"split_type":[0,0,0,0,0,0,0,0,0,0,0,0,0,0,0,0,0,0,0,0,0,0,0,0,0,0,0,0,0,0,0],"sum_hessian":[1.4880136E4,3.9119045E3,1.0968231E4,3.5991217E2,3.5519924E3,9.088027E3,1.8802036E3,1.8305443E2,1.7685773E2,3.5130046E3,3.898767E1,7.091776E3,1.9962515E3,1.3003965E3,5.798071E2,7.46766E1,1.0837784E2,1.5661227E1,1.611965E2,2.839671E3,6.733339E2,2.6410961E1,1.2576711E1,1.4503477E3,5.641428E3,7.141191E2,1.2821323E3,1.1899706E3,1.1042592E2,5.552076E2,2.4599537E1],"tree_param":{"num_deleted":"0","num_feature":"10","num_nodes":"31","size_leaf_vector":"0"}},{"base_weights":[-5.3771806E-4,4.8222724E-1,-1.4841111E0,-6.730763E-2,5.7708085E-1,-1.5292745E0,-1.4590406E0,2.6026497E-2,-5.42232E-1,6.502653E-1,1.7902979E-1,-5.0247234E-1,-1.459388E0,4.4600868E-1,-5.787427E-2,-7.0736986E-1,7.2909504E-1,6.858227E-1,5.04193E-1,2.3596908E-1,-2.4382575E-1],"categories":[],"categories_nodes":[],"categories_segments":[],"categories_sizes":[],"default_left":[true,true,true,true,true,false,true,true,true,true,true,false,false,false,false,false,false,false,false,false,false],"id":17,"left_children":[1,3,5,7,9,-1,11,13,15,17,19,-1,-1,-1,-1,-1,-1,-1,-1,-1,-1],"loss_changes":[1.0631954E4,5.838445E2,1.8950195E0,7.313241E1,2.7812988E2,0E0,5.3222656E-2,4.8637074E1,5.7405357E1,4.1557617E1,3.580622E1,0E0,0E0,0E0,0E0,0E0,0E0,0E0,0E0,0E0,0E0],"parents":[2147483647,0,0,1,1,2,2,3,3,4,4,6,6,7,7,8,8,9,9,10,10],"right_children":[2,4,6,8,10,-1,12,14,16,18,20,-1,-1,-1,-1,-1,-1,-1,-1,-1,-1],"split_conditions":[5E-1,2.65E1,1.49E2,1.595E2,5.85E1,-4.587823E-2,1.505E2,1.415E2,1.615E2,5.05E1,7.45E1,-1.507417E-2,-4.378164E-2,1.338026E-2,-1.736228E-3,-2.1221096E-2,2.187285E-2,2.0574681E-2,1.512579E-2,7.0790723E-3,-7.3147723E-3],"split_indices":[4,1,8,8,1,0,8,8,8,1,1,0,0,0,0,0,0,0,0,0,0],"split_type":[0,0,0,0,0,0,0,0,0,0,0,0,0,0,0,0,0,0,0,0,0],"sum_hessian":[1.4842595E4,1.1199028E4,3.6435657E3,1.6485333E3,9.550495E3,1.2791802E3,2.3643855E3,1.3785585E3,2.6997488E2,8.066736E3,1.4837594E3,1.3838809E0,2.3630017E3,2.2882298E2,1.1497355E3,2.3933081E2,3.0644062E1,6.4845493E3,1.5821866E3,1.3080648E3,1.7569452E2],"tree_param":{"num_deleted":"0","num_feature":"10","num_nodes":"21","size_leaf_vector":"0"}},{"base_weights":[-5.916209E-4,4.689803E-1,-1.4616184E0,5.7011515E-1,2.2736196E-1,-1.503832E0,-1.4380919E0,2.1870886E-1,5.896652E-1,6.3429284E-1,-9.12544E-2,-4.9489856E-1,-1.4384378E0,-8.3578926E-1,2.7928331E-1,5.487678E-1,7.7247494E-1,-4.725764E-2,7.247338E-1,-1.13147795E-2,-4.942596E-1],"categories":[],"categories_nodes":[],"categories_segments":[],"categories_sizes":[],"default_left":[true,true,true,true,true,false,true,true,true,true,true,false,false,false,false,false,false,false,false,false,false],"id":18,"left_children":[1,3,5,7,9,-1,11,13,15,17,19,-1,-1,-1,-1,-1,-1,-1,-1,-1,-1],"loss_changes":[1.0127622E4,2.728589E2,1.402832E0,5.396924E1,4.2766058E2,0E0,4.8339844E-2,2.6843435E1,5.5342285E1,8.9314514E1,5.9613403E1,0E0,0E0,0E0,0E0,0E0,0E0,0E0,0E0,0E0,0E0],"parents":[2147483647,0,0,1,1,2,2,3,3,4,4,6,6,7,7,8,8,9,9,10,10],"right_children":[2,4,6,8,10,-1,12,14,16,18,20,-1,-1,-1,-1,-1,-1,-1,-1,-1,-1],"split_conditions":[5E-1,1.26E2,1.49E2,2.45E1,5E-1,-4.5114957E-2,1.505E2,1.5E0,5E-1,1.525E2,1.595E2,-1.4846956E-2,-4.3153133E-2,-2.5073677E-2,8.378499E-3,1.6463034E-2,2.3174249E-2,-1.4177292E-3,2.1742014E-2,-3.394434E-4,-1.4827788E-2],"split_indices":[4,8,8,8,5,0,8,8,5,8,8,0,0,0,0,0,0,0,0,0,0],"split_type":[0,0,0,0,0,0,0,0,0,0,0,0,0,0,0,0,0,0,0,0,0],"sum_hessian":[1.4760067E4,1.1170548E4,3.5895193E3,7.87354E3,3.2970085E3,1.2620726E3,2.3274468E3,4.15591E2,7.4579487E3,1.4474113E3,1.8495973E3,1.3782959E0,2.3260684E3,2.1881067E1,3.9370993E2,6.0977812E3,1.3601675E3,1.6962433E2,1.2777869E3,1.5442999E3,3.0529736E2],"tree_param":{"num_deleted":"0","num_feature":"10","num_nodes":"21","size_leaf_vector":"0"}},{"base_weights":[-6.479082E-4,4.5604688E-1,-1.4403718E0,-7.9605824E-1,5.349548E-1,-1.4741523E0,-1.4176291E0,-7.825266E-1,-1.2704507E0,5.994161E-1,3.7330243E-1,-1.0006504E0,-7.5658774E-1,-9.2347276E-1,6.03046E-1,2.4212007E-1,6.225987E-1],"categories":[],"categories_nodes":[],"categories_segments":[],"categories_sizes":[],"default_left":[true,true,true,true,true,false,false,true,false,true,true,false,false,false,false,false,false],"id":19,"left_children":[1,3,5,7,9,-1,-1,11,-1,13,15,-1,-1,-1,-1,-1,-1],"loss_changes":[9.651916E3,1.1014946E3,6.2646484E-1,3.2495117E0,1.0902515E2,0E0,0E0,2.894287E0,0E0,4.1981934E1,9.768222E1,0E0,0E0,0E0,0E0,0E0,0E0],"parents":[2147483647,0,0,1,1,2,2,3,3,4,4,7,7,9,9,10,10],"right_children":[2,4,6,8,10,-1,-1,12,-1,14,16,-1,-1,-1,-1,-1,-1],"split_conditions":[5E-1,5E-1,5E-1,2.915E2,5E-1,-4.4224568E-2,-4.252887E-2,3.85E1,-3.811352E-2,5E-1,1.5E0,-3.0019512E-2,-2.2697631E-2,-2.7704183E-2,1.8091379E-2,7.263602E-3,1.8677961E-2],"split_indices":[4,6,5,9,5,0,0,9,0,2,5,0,0,0,0,0,0],"split_type":[0,0,0,0,0,0,0,0,0,0,0,0,0,0,0,0,0],"sum_hessian":[1.4677399E4,1.11433125E4,3.5340867E3,6.600822E2,1.048323E4,1.3962976E3,2.137789E3,6.4435223E2,1.5730009E1,7.4926963E3,2.9905337E3,6.448786E1,5.798644E2,1.721438E1,7.475482E3,1.9607417E3,1.029792E3],"tree_param":{"num_deleted":"0","num_feature":"10","num_nodes":"17","size_leaf_vector":"0"}},{"base_weights":[-7.109406E-4,-6.9032955E-1,2.4141338E-1,3.618291E-1,-7.569436E-1,3.2487312E-1,-2.058309E-1,3.8683346E-1,-7.8715736E-1,-8.6505806E-1,-6.269071E-1,2.907581E-1,7.192462E-1,-3.2225144E-1,3.320421E-1,1.902323E-1,5.1786107E-1,-1.2929286E0,4.7270602E-1,-9.404162E-1,-7.996075E-1,-6.084365E-1,-1.1998706E0,3.2253537E-1,-1.4293289E-2,7.8234535E-1,4.0513116E-1,-2.4880138E-1,-7.60197E-1,8.9625664E-2,4.5535246E-1],"categories":[],"categories_nodes":[],"categories_segments":[],"categories_sizes":[],"default_left":[true,true,true,true,true,true,true,true,true,true,true,true,true,true,true,false,false,false,false,false,false,false,false,false,false,false,false,false,false,false,false],"id":20,"left_children":[1,3,5,7,9,11,13,15,17,19,21,23,25,27,29,-1,-1,-1,-1,-1,-1,-1,-1,-1,-1,-1,-1,-1,-1,-1,-1],"loss_changes":[2.4364294E3,2.6603748E2,4.0319318E2,6.8103275E0,4.95968E1,1.222478E2,1.06499214E2,5.627903E0,3.8944054E0,8.839844E0,1.6442688E1,8.122687E1,1.4032745E1,4.4755478E1,9.010803E0,0E0,0E0,0E0,0E0,0E0,0E0,0E0,0E0,0E0,0E0,0E0,0E0,0E0,0E0,0E0,0E0],"parents":[2147483647,0,0,1,1,2,2,3,3,4,4,5,5,6,6,7,7,8,8,9,9,10,10,11,11,12,12,13,13,14,14],"right_children":[2,4,6,8,10,12,14,16,18,20,22,24,26,28,30,-1,-1,-1,-1,-1,-1,-1,-1,-1,-1,-1,-1,-1,-1,-1,-1],"split_conditions":[2.85E1,5E-1,5.95E1,4.85E1,5E-1,1.5E0,1.5E0,2.35E1,2.75E1,2.75E1,4.95E1,5E-1,2.95E1,7.45E1,5E-1,5.706969E-3,1.5535831E-2,-3.8787857E-2,1.418118E-2,-2.8212486E-2,-2.3988225E-2,-1.8253095E-2,-3.5996117E-2,9.676061E-3,-4.2879867E-4,2.347036E-2,1.2153935E-2,-7.4640415E-3,-2.2805909E-2,2.68877E-3,1.3660573E-2],"split_indices":[1,5,1,3,0,5,5,1,1,3,3,5,3,1,0,0,0,0,0,0,0,0,0,0,0,0,0,0,0,0,0],"split_type":[0,0,0,0,0,0,0,0,0,0,0,0,0,0,0,0,0,0,0,0,0,0,0,0,0,0,0,0,0,0,0],"sum_hessian":[1.458972E4,3.7908286E3,1.0798891E4,2.2544983E2,3.565379E3,9.100863E3,1.6980277E3,2.2129727E2,4.152569E0,1.9437008E3,1.621678E3,8.377877E3,7.229862E2,1.3962218E3,3.0180594E2,8.9483315E1,1.3181395E2,2.9443262E0,1.2082424E0,8.972547E2,1.0464462E3,1.5730302E3,4.8647808E1,7.587435E3,7.90442E2,6.008061E2,1.2218014E2,1.1970299E3,1.9919186E2,1.0234068E2,1.9946526E2],"tree_param":{"num_deleted":"0","num_feature":"10","num_nodes":"31","size_leaf_vector":"0"}},{"base_weights":[-7.081243E-4,4.4114417E-1,-1.4163781E0,-7.716829E-1,5.174617E-1,-1.3952074E0,-1.458473E0,-6.368733E-1,-9.8204327E-1,-9.9673765E-3,5.7955164E-1,-7.717672E-1,-4.531602E-1,-8.9342684E-1,-1.3182787E0,-2.970093E-1,1.0272E-1,6.4215E-1,1.8753639E-1],"categories":[],"categories_nodes":[],"categories_segments":[],"categories_sizes":[],"default_left":[true,true,true,true,true,false,false,true,true,true,true,false,false,false,false,false,false,false,false],"id":21,"left_children":[1,3,5,7,9,-1,-1,11,13,15,17,-1,-1,-1,-1,-1,-1,-1,-1],"loss_changes":[9.1055205E3,1.0272727E3,1.0507812E0,1.8011139E1,3.418286E2,0E0,0E0,9.646118E0,6.4148865E0,3.562212E1,2.2904468E2,0E0,0E0,0E0,0E0,0E0,0E0,0E0,0E0],"parents":[2147483647,0,0,1,1,2,2,3,3,4,4,7,7,8,8,9,9,10,10],"right_children":[2,4,6,8,10,-1,-1,12,14,16,18,-1,-1,-1,-1,-1,-1,-1,-1],"split_conditions":[5E-1,5E-1,3.85E1,4.05E1,2.45E1,-4.185622E-2,-4.3754186E-2,2.65E1,6.15E1,2.15E1,5.95E1,-2.3153016E-2,-1.3594805E-2,-2.6802804E-2,-3.954836E-2,-8.910279E-3,3.0816E-3,1.9264499E-2,5.6260917E-3],"split_indices":[4,6,1,1,1,0,0,1,1,1,1,0,0,0,0,0,0,0,0],"split_type":[0,0,0,0,0,0,0,0,0,0,0,0,0,0,0,0,0,0,0],"sum_hessian":[1.4554791E4,1.1093141E4,3.4616506E3,6.5617615E2,1.0436964E4,2.3259883E3,1.1356626E3,4.0235452E2,2.5382161E2,1.0993405E3,9.337624E3,2.3015738E2,1.7219714E2,2.037733E2,5.0048298E1,3.094531E2,7.898873E2,8.051322E3,1.2863016E3],"tree_param":{"num_deleted":"0","num_feature":"10","num_nodes":"19","size_leaf_vector":"0"}},{"base_weights":[-7.6875085E-4,4.292824E-1,-1.3975526E0,5.208449E-1,2.1131945E-1,-1.4378593E0,-1.3747187E0,4.823943E-1,6.9179237E-1,5.8355814E-1,-7.791824E-2,-4.4910598E-1,-1.3750798E0,-4.6594572E-1,4.9235094E-1,-7.6675195E-1,7.145578E-1,-8.029344E-2,6.726344E-1,-1.9204022E-3,-4.6221203E-1],"categories":[],"categories_nodes":[],"categories_segments":[],"categories_sizes":[],"default_left":[true,true,true,true,true,false,true,true,true,true,true,false,false,false,false,false,false,false,false,false,false],"id":22,"left_children":[1,3,5,7,9,-1,11,13,15,17,19,-1,-1,-1,-1,-1,-1,-1,-1,-1,-1],"loss_changes":[8.688384E3,2.20599E2,1.1567383E0,5.085034E1,3.5244934E2,0E0,1.1669922E-1,6.028589E1,4.7949646E1,8.469357E1,5.3819145E1,0E0,0E0,0E0,0E0,0E0,0E0,0E0,0E0,0E0,0E0],"parents":[2147483647,0,0,1,1,2,2,3,3,4,4,6,6,7,7,8,8,9,9,10,10],"right_children":[2,4,6,8,10,-1,12,14,16,18,20,-1,-1,-1,-1,-1,-1,-1,-1,-1,-1],"split_conditions":[5E-1,1.26E2,1.49E2,5E-1,5E-1,-4.3135777E-2,1.505E2,1.5E0,1.5E0,1.535E2,1.595E2,-1.3473179E-2,-4.1252393E-2,-1.3978371E-2,1.4770527E-2,-2.3002557E-2,2.1436734E-2,-2.4088032E-3,2.0179031E-2,-5.7612062E-5,-1.386636E-2],"split_indices":[4,8,8,5,5,0,8,3,8,8,8,0,0,0,0,0,0,0,0,0,0],"split_type":[0,0,0,0,0,0,0,0,0,0,0,0,0,0,0,0,0,0,0,0,0],"sum_hessian":[1.4462044E4,1.1058096E4,3.403948E3,7.785959E3,3.2721375E3,1.2085804E3,2.1953677E3,6.359387E3,1.4265718E3,1.4303324E3,1.8418049E3,1.3415885E0,2.1940261E3,6.559769E1,6.2937896E3,2.1421995E1,1.4051498E3,1.6922928E2,1.2611031E3,1.5385472E3,3.032577E2],"tree_param":{"num_deleted":"0","num_feature":"10","num_nodes":"21","size_leaf_vector":"0"}},{"base_weights":[-8.250417E-4,4.1751024E-1,-1.3796878E0,4.874454E-1,2.5089636E-1,-1.4120643E0,-1.357473E0,-3.9028955E-1,4.9586812E-1,1.1136492E-1,5.594749E-1,-5.789263E-1,-3.797575E-2,-9.5350575E-1,4.9941862E-1,-7.9991475E-2,2.4664418E-1,3.3740577E-1,6.751938E-1],"categories":[],"categories_nodes":[],"categories_segments":[],"categories_sizes":[],"default_left":[true,true,true,true,true,false,false,true,true,true,true,false,false,false,false,false,false,false,false],"id":23,"left_children":[1,3,5,7,9,-1,-1,11,13,15,17,-1,-1,-1,-1,-1,-1,-1,-1],"loss_changes":[8.292975E3,1.2840527E2,4.9023438E-1,5.7622925E1,1.4043777E2,0E0,0E0,4.9222E0,4.0073853E1,5.8221375E1,2.5876495E1,0E0,0E0,0E0,0E0,0E0,0E0,0E0,0E0],"parents":[2147483647,0,0,1,1,2,2,3,3,4,4,7,7,8,8,9,9,10,10],"right_children":[2,4,6,8,10,-1,-1,12,14,16,18,-1,-1,-1,-1,-1,-1,-1,-1],"split_conditions":[5E-1,5E-1,5E-1,1.5E0,1.5E0,-4.236193E-2,-4.0724188E-2,5E-1,5E-1,2.75E1,3.33855E4,-1.736779E-2,-1.1392725E-3,-2.8605172E-2,1.4982558E-2,-2.3997442E-3,7.3993253E-3,1.0122173E-2,2.0255813E-2],"split_indices":[4,5,5,3,5,0,0,3,2,3,7,0,0,0,0,0,0,0,0],"split_type":[0,0,0,0,0,0,0,0,0,0,0,0,0,0,0,0,0,0,0],"sum_hessian":[1.4374887E4,1.1029367E4,3.3455195E3,7.767204E3,3.262163E3,1.3359279E3,2.0095917E3,7.339416E1,7.69381E3,2.2473354E3,1.01482764E3,4.7381706E1,2.6012451E1,1.8147518E1,7.6756626E3,9.3092456E2,1.3164109E3,3.4899957E2,6.6582806E2],"tree_param":{"num_deleted":"0","num_feature":"10","num_nodes":"19","size_leaf_vector":"0"}},{"base_weights":[-8.814274E-4,4.059723E-1,-1.3627095E0,4.742143E-1,2.4367452E-1,-1.3926321E0,-1.3420739E0,3.9142716E-1,4.948055E-1,1.0803139E-1,5.447339E-1,4.70151E-1,3.5964024E-1,5.8131695E-1,4.6834266E-1,-4.8649453E-2,2.6624456E-1,3.279871E-1,6.5795755E-1],"categories":[],"categories_nodes":[],"categories_segments":[],"categories_sizes":[],"default_left":[true,true,true,true,true,false,false,true,true,true,true,false,false,false,false,false,false,false,false],"id":24,"left_children":[1,3,5,7,9,-1,-1,11,13,15,17,-1,-1,-1,-1,-1,-1,-1,-1],"loss_changes":[7.9184556E3,1.2175989E2,1.6113281E-1,1.3010376E1,1.3304248E2,0E0,0E0,3.7036133E0,1.3919556E1,5.5744156E1,2.4622833E1,0E0,0E0,0E0,0E0,0E0,0E0,0E0,0E0],"parents":[2147483647,0,0,1,1,2,2,3,3,4,4,7,7,8,8,9,9,10,10],"right_children":[2,4,6,8,10,-1,-1,12,14,16,18,-1,-1,-1,-1,-1,-1,-1,-1],"split_conditions":[5E-1,5E-1,5E-1,1.264E4,1.5E0,-4.1778963E-2,-4.0262215E-2,9.05E1,2.94075E4,5E-1,3.33855E4,1.410453E-2,1.0789207E-2,1.7439509E-2,1.405028E-2,-1.4594835E-3,7.987336E-3,9.839613E-3,1.9738726E-2],"split_indices":[4,5,5,7,5,0,0,9,7,0,7,0,0,0,0,0,0,0,0],"split_type":[0,0,0,0,0,0,0,0,0,0,0,0,0,0,0,0,0,0,0],"sum_hessian":[1.4289569E4,1.1003049E4,3.2865205E3,7.744689E3,3.2583604E3,1.3142734E3,1.972247E3,1.546598E3,6.198091E3,2.2472256E3,1.01113477E3,4.4089124E2,1.1057068E3,1.4469166E3,4.7511743E3,1.1294283E3,1.1177972E3,3.4829056E2,6.6284424E2],"tree_param":{"num_deleted":"0","num_feature":"10","num_nodes":"19","size_leaf_vector":"0"}},{"base_weights":[-9.3084614E-4,-1.872679E-1,8.6374536E-2,-3.4860894E-1,-6.704062E-2,2.78364E-1,-1.5441474E-1,-1.6000415E-1,-3.9943925E-1,-3.3353716E-2,-2.2390299E-1,1.8323155E-1,3.2791662E-1,-2.9453877E-1,-5.036667E-2,-5.900395E-1,-9.933908E-2,-3.6717623E-1,-8.6906344E-1,-4.967972E-1,-2.3163E-2,2.801977E-1,-2.5247207E-1,2.5314587E-1,1.2017709E-1,-9.840765E-1,3.3105528E-1,-2.6083258E-1,-6.573296E-1,-4.248111E-3,-3.56903E-1],"categories":[],"categories_nodes":[],"categories_segments":[],"categories_sizes":[],"default_left":[true,true,true,true,true,true,true,true,true,true,true,true,true,true,true,false,false,false,false,false,false,false,false,false,false,false,false,false,false,false,false],"id":25,"left_children":[1,3,5,7,9,11,13,15,17,19,21,23,25,27,29,-1,-1,-1,-1,-1,-1,-1,-1,-1,-1,-1,-1,-1,-1,-1,-1],"loss_changes":[2.3110582E2,8.789427E1,4.4724252E2,1.8487167E1,1.3722709E1,2.5313538E1,6.256147E1,1.0701864E1,2.276558E1,1.0096081E1,6.683737E0,8.10622E0,1.4894165E1,2.2190948E1,3.4836243E1,0E0,0E0,0E0,0E0,0E0,0E0,0E0,0E0,0E0,0E0,0E0,0E0,0E0,0E0,0E0,0E0],"parents":[2147483647,0,0,1,1,2,2,3,3,4,4,5,5,6,6,7,7,8,8,9,9,10,10,11,11,12,12,13,13,14,14],"right_children":[2,4,6,8,10,12,14,16,18,20,22,24,26,28,30,-1,-1,-1,-1,-1,-1,-1,-1,-1,-1,-1,-1,-1,-1,-1,-1],"split_conditions":[2.75E1,5E-1,2.95E1,1.4927E4,3.9927E4,3.35335E4,5E-1,2.5E0,2.45E1,5E-1,5.5E0,2.65975E4,5E-1,4.85E1,4.75E1,-1.7701184E-2,-2.9801724E-3,-1.1015287E-2,-2.6071902E-2,-1.4903916E-2,-6.9489E-4,8.405931E-3,-7.574162E-3,7.594376E-3,3.6053127E-3,-2.9522294E-2,9.931658E-3,-7.824977E-3,-1.9719888E-2,-1.2744333E-4,-1.070709E-2],"split_indices":[3,0,3,7,7,7,0,3,3,3,3,7,2,3,3,0,0,0,0,0,0,0,0,0,0,0,0,0,0,0,0],"split_type":[0,0,0,0,0,0,0,0,0,0,0,0,0,0,0,0,0,0,0,0,0,0,0,0,0,0,0,0,0,0,0],"sum_hessian":[1.420397E4,4.531399E3,9.67257E3,1.9340575E3,2.5973413E3,5.381534E3,4.291036E3,4.1146658E2,1.522591E3,2.1391597E3,4.581817E2,1.8447091E3,3.5368254E3,1.8277421E3,2.4632942E3,4.9790615E1,3.6167596E2,1.4263809E3,9.620998E1,4.499877E1,2.094161E3,2.410162E1,4.3408008E2,8.7334064E2,9.7136847E2,7.694997E0,3.5291304E3,1.6739387E3,1.538034E2,2.1420374E3,3.2125684E2],"tree_param":{"num_deleted":"0","num_feature":"10","num_nodes":"31","size_leaf_vector":"0"}},{"base_weights":[-9.1184827E-4,-1.2446773E0,4.304652E-1,-7.7300346E-1,-1.3473282E0,4.6830392E-1,-1.3175063E0,-6.317987E-1,-9.924073E-1,-1.4895292E-2,5.258574E-1,-1.2404901E0,-1.4703691E0,-1.4301611E0,-6.040509E-1,-9.0600026E-1,-1.3198661E0,-2.8990492E-1,9.288745E-2,5.9237957E-1,1.5552539E-1,-1.2496121E0,-3.080616E-1],"categories":[],"categories_nodes":[],"categories_segments":[],"categories_sizes":[],"default_left":[true,true,true,true,false,true,true,true,true,true,true,true,false,false,false,false,false,false,false,false,false,false,false],"id":26,"left_children":[1,3,5,7,-1,9,11,13,15,17,19,21,-1,-1,-1,-1,-1,-1,-1,-1,-1,-1,-1],"loss_changes":[7.617193E3,1.7597314E2,6.978165E2,1.9690033E1,0E0,2.869629E2,8.0856323E-1,8.036072E0,6.020462E0,3.2608387E1,2.2705298E2,9.342041E-1,0E0,0E0,0E0,0E0,0E0,0E0,0E0,0E0,0E0,0E0,0E0],"parents":[2147483647,0,0,1,1,2,2,3,3,5,5,6,6,7,7,8,8,9,9,10,10,11,11],"right_children":[2,4,6,8,-1,10,12,14,16,18,20,22,-1,-1,-1,-1,-1,-1,-1,-1,-1,-1,-1],"split_conditions":[5E-1,5E-1,5E-1,4.05E1,-4.0419843E-2,2.45E1,4.95E1,2.5E0,6.15E1,2.15E1,5.85E1,2.965E2,-4.4111073E-2,-4.290483E-2,-1.8121526E-2,-2.7180007E-2,-3.959598E-2,-8.6971475E-3,2.7866233E-3,1.7771387E-2,4.6657613E-3,-3.7488364E-2,-9.241847E-3],"split_indices":[6,4,4,1,0,1,1,3,1,1,1,9,0,0,0,0,0,0,0,0,0,0,0],"split_type":[0,0,0,0,0,0,0,0,0,0,0,0,0,0,0,0,0,0,0,0,0,0,0],"sum_hessian":[1.4195095E4,3.6549873E3,1.0540107E4,6.5479193E2,3.0001953E3,1.0317494E4,2.22613E2,4.007533E2,2.5403864E2,1.0981918E3,9.219303E3,1.5409233E2,6.852068E1,1.1763101E1,3.889902E2,2.0398068E2,5.005795E1,3.0874176E2,7.8944995E2,7.81492E3,1.4043826E3,1.5226257E2,1.8297493E0],"tree_param":{"num_deleted":"0","num_feature":"10","num_nodes":"23","size_leaf_vector":"0"}},{"base_weights":[-9.7500306E-4,-1.2277515E0,4.1899508E-1,-1.264329E0,-8.823592E-1,4.9756086E-1,2.2325319E-1,-7.077073E-1,-1.2684306E0,-2.4180716E-1,-1.1976242E0,4.6074754E-1,6.600819E-1,5.3662485E-1,-3.2473464E-2,-5.04088E-1,-8.289987E-1,-6.6446006E-1,-4.807773E-2,-1.2206565E0,-4.032559E-1,-9.644402E-1,4.6508628E-1,8.005748E-1,5.919463E-1,-5.3596597E-2,6.1320823E-1,5.946773E-2,-4.7420695E-1],"categories":[],"categories_nodes":[],"categories_segments":[],"categories_sizes":[],"default_left":[true,true,true,true,true,true,true,true,false,true,true,true,true,true,true,false,false,false,false,false,false,false,false,false,false,false,false,false,false],"id":27,"left_children":[1,3,5,7,9,11,13,15,-1,17,19,21,23,25,27,-1,-1,-1,-1,-1,-1,-1,-1,-1,-1,-1,-1,-1,-1],"loss_changes":[7.265206E3,4.4318848E1,1.6144373E2,6.5214844E0,6.99245E1,4.4541016E1,2.4128319E2,2.2505856E-1,0E0,9.460843E0,3.766327E0,3.825818E1,1.2755066E1,6.11857E1,6.739561E1,0E0,0E0,0E0,0E0,0E0,0E0,0E0,0E0,0E0,0E0,0E0,0E0,0E0,0E0],"parents":[2147483647,0,0,1,1,2,2,3,3,4,4,5,5,6,6,7,7,9,9,10,10,11,11,12,12,13,13,14,14],"right_children":[2,4,6,8,10,12,14,16,-1,18,20,22,24,26,28,-1,-1,-1,-1,-1,-1,-1,-1,-1,-1,-1,-1,-1,-1],"split_conditions":[5E-1,1.535E2,1.26E2,5.5E0,1.585E2,5E-1,5E-1,5E-1,-3.8052917E-2,1.555E2,1.615E2,5E-1,1.5E0,1.535E2,1.595E2,-1.5122639E-2,-2.486996E-2,-1.9933801E-2,-1.4423318E-3,-3.6619693E-2,-1.2097677E-2,-2.8933207E-2,1.3952588E-2,2.4017243E-2,1.7758388E-2,-1.6078979E-3,1.8396247E-2,1.7840319E-3,-1.4226208E-2],"split_indices":[6,8,8,8,8,5,5,0,0,8,8,2,5,8,8,0,0,0,0,0,0,0,0,0,0,0,0,0,0],"split_type":[0,0,0,0,0,0,0,0,0,0,0,0,0,0,0,0,0,0,0,0,0,0,0,0,0,0,0,0,0],"sum_hessian":[1.4099463E4,3.595298E3,1.0504165E4,3.2486064E3,3.466916E2,7.494516E3,3.0096482E3,2.5033106E1,3.2235735E3,1.1493496E2,2.3175664E2,6.113546E3,1.3809702E3,1.351904E3,1.6577441E3,1.1269807E1,1.37633E1,3.5360443E1,7.957452E1,2.247048E2,7.051838E0,1.7883629E1,6.0956626E3,4.474979E2,9.334723E2,1.5530234E2,1.1966018E3,1.3728651E3,2.84879E2],"tree_param":{"num_deleted":"0","num_feature":"10","num_nodes":"29","size_leaf_vector":"0"}},{"base_weights":[-1.0218279E-3,-5.987941E-1,2.024113E-1,1.710358E-1,-6.8208426E-1,2.8414717E-1,-1.8892296E-1,-1.1288993E-1,4.5746666E-1,-6.9816303E-1,6.3221663E-1,3.350303E-1,1.0149676E-1,-3.1555887E-2,-3.417908E-1,-4.544071E-1,1.2665084E-1,-2.5875056E-1,5.2943957E-1,-7.5191855E-1,-4.8000446E-1,6.953884E-1,-7.306214E-1,5.423474E-1,2.8155452E-1,-6.0319835E-1,4.7693047E-1,8.745468E-2,-1.5796542E-1,-2.6486534E-1,-5.675228E-1],"categories":[],"categories_nodes":[],"categories_segments":[],"categories_sizes":[],"default_left":[true,true,true,true,true,true,true,true,true,true,true,true,true,true,true,false,false,false,false,false,false,false,false,false,false,false,false,false,false,false,false],"id":28,"left_children":[1,3,5,7,9,11,13,15,17,19,21,23,25,27,29,-1,-1,-1,-1,-1,-1,-1,-1,-1,-1,-1,-1,-1,-1,-1,-1],"loss_changes":[1.7040773E3,2.28255E2,3.3446768E2,2.8366623E1,6.829407E1,8.034839E1,4.34588E1,1.4427151E1,9.081558E0,3.6843994E1,3.8941536E0,7.4837036E1,4.992363E2,1.3425502E1,1.5764214E1,0E0,0E0,0E0,0E0,0E0,0E0,0E0,0E0,0E0,0E0,0E0,0E0,0E0,0E0,0E0,0E0],"parents":[2147483647,0,0,1,1,2,2,3,3,4,4,5,5,6,6,7,7,8,8,9,9,10,10,11,11,12,12,13,13,14,14],"right_children":[2,4,6,8,10,12,14,16,18,20,22,24,26,28,30,-1,-1,-1,-1,-1,-1,-1,-1,-1,-1,-1,-1,-1,-1,-1,-1],"split_conditions":[2.85E1,1.435E2,5.85E1,1.23E2,1.615E2,1.245E2,6.55E1,2.35E1,2.15E1,1.525E2,4.95195E4,3.85E1,1.525E2,2.7E1,7.45E1,-1.3632213E-2,3.799525E-3,-7.7625164E-3,1.5883187E-2,-2.2557557E-2,-1.4400134E-2,2.0861652E-2,-2.1918641E-2,1.6270421E-2,8.446636E-3,-1.809595E-2,1.4307913E-2,2.6236402E-3,-4.7389627E-3,-7.94596E-3,-1.7025685E-2],"split_indices":[1,8,1,8,8,8,1,1,1,8,7,1,8,8,1,0,0,0,0,0,0,0,0,0,0,0,0,0,0,0,0],"split_type":[0,0,0,0,0,0,0,0,0,0,0,0,0,0,0,0,0,0,0,0,0,0,0,0,0,0,0,0,0,0,0],"sum_hessian":[1.4011027E4,3.55703E3,1.0453997E4,3.4717026E2,3.2098596E3,8.648009E3,1.805989E3,1.7465182E2,1.7251843E2,3.171529E3,3.8330666E1,6.763097E3,1.8849114E3,8.904932E2,9.1549585E2,7.1630325E1,1.0302151E2,1.55163965E1,1.5700204E2,2.5425767E3,6.289524E2,3.7100685E1,1.2299815E0,1.3849032E3,5.378194E3,6.5495105E2,1.2299603E3,4.5882874E2,4.3166452E2,6.8442816E2,2.3106767E2],"tree_param":{"num_deleted":"0","num_feature":"10","num_nodes":"31","size_leaf_vector":"0"}},{"base_weights":[-1.0081757E-3,3.7257573E-1,-1.3155015E0,-7.2190917E-1,4.417736E-1,-1.346733E0,-1.2934916E0,-5.7971776E-1,-9.414689E-1,-4.6872246E-5,4.9474525E-1,-1.2939211E0,-2.908095E-1,-3.035652E-1,-6.96964E-1,-8.580131E-1,-1.261887E0,-2.6369172E-1,1.03009485E-1,5.9052867E-1,2.5707182E-1],"categories":[],"categories_nodes":[],"categories_segments":[],"categories_sizes":[],"default_left":[true,true,true,true,true,false,true,true,true,true,true,false,false,false,false,false,false,false,false,false,false],"id":29,"left_children":[1,3,5,7,9,-1,11,13,15,17,19,-1,-1,-1,-1,-1,-1,-1,-1,-1,-1],"loss_changes":[6.8621743E3,8.244265E2,3.8330078E-1,1.9666718E1,2.3953687E2,0E0,4.1601562E-1,1.2595551E1,5.679489E0,2.9825628E1,2.0790259E2,0E0,0E0,0E0,0E0,0E0,0E0,0E0,0E0,0E0,0E0],"parents":[2147483647,0,0,1,1,2,2,3,3,4,4,6,6,7,7,8,8,9,9,10,10],"right_children":[2,4,6,8,10,-1,12,14,16,18,20,-1,-1,-1,-1,-1,-1,-1,-1,-1,-1],"split_conditions":[5E-1,5E-1,5E-1,4.05E1,2.45E1,-4.0401988E-2,4.25E1,5E-1,6.15E1,2.15E1,5.15E1,-3.8817633E-2,-8.724285E-3,-9.1069555E-3,-2.090892E-2,-2.5740393E-2,-3.785661E-2,-7.910752E-3,3.0902845E-3,1.771586E-2,7.7121546E-3],"split_indices":[4,6,5,1,1,0,1,5,1,1,1,0,0,0,0,0,0,0,0,0,0],"split_type":[0,0,0,0,0,0,0,0,0,0,0,0,0,0,0,0,0,0,0,0,0],"sum_hessian":[1.3971824E4,1.0880314E4,3.0915098E3,6.4643207E2,1.0233883E4,1.2531405E3,1.8383691E3,3.9455225E2,2.5187982E2,1.0957301E3,9.138152E3,1.8372915E3,1.0776387E0,1.1865972E2,2.7589252E2,2.0274962E2,4.91302E1,3.075019E2,7.882282E2,6.5122163E3,2.6259363E3],"tree_param":{"num_deleted":"0","num_feature":"10","num_nodes":"21","size_leaf_vector":"0"}},{"base_weights":[-1.0641502E-3,3.626037E-1,-1.3015845E0,3.8355187E-1,-2.3928832E-2,-1.3305168E0,-1.281087E0,2.4697259E-1,4.4557735E-1,1.4824297E-1,-3.4632507E-1,3.7611783E-1,3.718971E-3,4.952527E-1,3.4188205E-1,3.7228253E-1,6.049076E-2,-4.03856E-1,7.1292095E-2],"categories":[],"categories_nodes":[],"categories_segments":[],"categories_sizes":[],"default_left":[true,true,true,true,true,false,false,true,true,true,true,false,false,false,false,false,false,false,false],"id":30,"left_children":[1,3,5,7,9,-1,-1,11,13,15,17,-1,-1,-1,-1,-1,-1,-1,-1],"loss_changes":[6.563876E3,8.782764E1,9.375E-2,8.704431E1,3.1052416E1,0E0,0E0,1.0100664E2,3.6268677E1,7.1489143E0,4.707323E0,0E0,0E0,0E0,0E0,0E0,0E0,0E0,0E0],"parents":[2147483647,0,0,1,1,2,2,3,3,4,4,7,7,8,8,9,9,10,10],"right_children":[2,4,6,8,10,-1,-1,12,14,16,18,-1,-1,-1,-1,-1,-1,-1,-1],"split_conditions":[5E-1,4.65E1,5E-1,2.75E1,5E-1,-3.9915502E-2,-3.843261E-2,5E-1,3.05E1,4.75E1,2.615E2,1.1283535E-2,1.1156913E-4,1.4857581E-2,1.0256461E-2,1.1168476E-2,1.8147228E-3,-1.211568E-2,2.1387627E-3],"split_indices":[4,3,5,3,5,0,0,5,3,3,9,0,0,0,0,0,0,0,0],"split_type":[0,0,0,0,0,0,0,0,0,0,0,0,0,0,0,0,0,0,0],"sum_hessian":[1.3876367E4,1.0844588E4,3.0317788E3,1.0287086E4,5.575021E2,1.230713E3,1.8010658E3,3.214276E3,7.07281E3,3.6377347E2,1.937286E2,2.0992314E3,1.1150444E3,4.7794385E3,2.2933713E3,1.0146962E2,2.6230383E2,1.703009E2,2.3427698E1],"tree_param":{"num_deleted":"0","num_feature":"10","num_nodes":"19","size_leaf_vector":"0"}},{"base_weights":[-1.1135357E-3,-5.649145E-1,1.8824434E-1,1.6467205E-1,-6.453104E-1,2.66415E-1,-1.8475175E-1,-1.0535565E-1,4.3601084E-1,-6.610452E-1,6.100123E-1,3.137391E-1,9.588915E-2,-3.3069693E-2,-3.3236718E-1,-4.351052E-1,1.2630346E-1,-2.521134E-1,5.056188E-1,-7.1298057E-1,-4.531374E-1,7.0921E-1,-2.4558385E-1,5.154887E-1,2.6177925E-1,-5.735286E-1,4.4809157E-1,8.349101E-2,-1.5683225E-1,-2.962657E-1,-9.0335923E-1],"categories":[],"categories_nodes":[],"categories_segments":[],"categories_sizes":[],"default_left":[true,true,true,true,true,true,true,true,true,true,true,true,true,true,true,false,false,false,false,false,false,false,false,false,false,false,false,false,false,false,false],"id":31,"left_children":[1,3,5,7,9,11,13,15,17,19,21,23,25,27,29,-1,-1,-1,-1,-1,-1,-1,-1,-1,-1,-1,-1,-1,-1,-1,-1],"loss_changes":[1.4725988E3,2.03521E2,3.0111584E2,2.5324612E1,6.2108032E1,6.8862915E1,4.006004E1,1.3326036E1,8.379639E0,3.299597E1,3.5005379E0,6.991174E1,4.3783383E2,1.276223E1,1.8426178E1,0E0,0E0,0E0,0E0,0E0,0E0,0E0,0E0,0E0,0E0,0E0,0E0,0E0,0E0,0E0,0E0],"parents":[2147483647,0,0,1,1,2,2,3,3,4,4,5,5,6,6,7,7,8,8,9,9,10,10,11,11,12,12,13,13,14,14],"right_children":[2,4,6,8,10,12,14,16,18,20,22,24,26,28,30,-1,-1,-1,-1,-1,-1,-1,-1,-1,-1,-1,-1,-1,-1,-1,-1],"split_conditions":[2.85E1,1.435E2,5.85E1,1.23E2,1.615E2,1.245E2,6.55E1,2.35E1,2.15E1,1.525E2,4.2E1,3.85E1,1.525E2,2.7E1,4.65E1,-1.30531555E-2,3.7891038E-3,-7.563402E-3,1.5168564E-2,-2.1389417E-2,-1.3594122E-2,2.1276299E-2,-7.3675155E-3,1.546466E-2,7.853378E-3,-1.7205857E-2,1.3442746E-2,2.5047304E-3,-4.704967E-3,-8.887971E-3,-2.7100777E-2],"split_indices":[1,8,1,8,8,8,1,1,1,8,3,1,8,8,3,0,0,0,0,0,0,0,0,0,0,0,0,0,0,0,0],"split_type":[0,0,0,0,0,0,0,0,0,0,0,0,0,0,0,0,0,0,0,0,0,0,0,0,0,0,0,0,0,0,0],"sum_hessian":[1.3791527E4,3.4669429E3,1.0324584E4,3.4401196E2,3.122931E3,8.535948E3,1.7886355E3,1.7272914E2,1.712828E2,3.0847388E3,3.8192207E1,6.681005E3,1.8549436E3,8.8277014E2,9.0586536E2,7.09124E1,1.0181675E2,1.5493791E1,1.5578902E2,2.4662424E3,6.184963E2,3.4377567E1,3.8146384E0,1.3664471E3,5.3145576E3,6.3927313E2,1.2156705E3,4.5477982E2,4.2799036E2,8.534256E2,5.243974E1],"tree_param":{"num_deleted":"0","num_feature":"10","num_nodes":"31","size_leaf_vector":"0"}},{"base_weights":[-1.096213E-3,-1.1780701E0,3.8303345E-1,-1.2153876E0,-8.319604E-1,-4.922432E-2,4.3695349E-1,-6.840399E-1,-1.2195119E0,-2.2094314E-1,-1.1474957E0,6.553319E-2,-5.1906985E-1,5.336119E-1,2.0030849E-1,-4.9397984E-1,-9.5929885E-1,-1.1949567E0,-1.2709154E0,-6.3009125E-1,-3.546305E-2,-1.1706843E0,-3.8494018E-1,2.1044571E-2,2.9475346E-1,-6.4387524E-1,5.217058E-1,2.4178773E-1,5.546203E-1,2.918497E-1,-5.386307E-2],"categories":[],"categories_nodes":[],"categories_segments":[],"categories_sizes":[],"default_left":[true,true,true,true,true,true,true,true,true,true,true,true,true,true,true,false,false,false,false,false,false,false,false,false,false,false,false,false,false,false,false],"id":32,"left_children":[1,3,5,7,9,11,13,15,17,19,21,23,25,27,29,-1,-1,-1,-1,-1,-1,-1,-1,-1,-1,-1,-1,-1,-1,-1,-1],"loss_changes":[6.2188125E3,4.27041E1,2.4172961E2,5.8564453E0,6.3867264E1,6.2096424E1,2.1079834E2,8.754635E-1,2.3032227E0,8.666786E0,3.4233398E0,9.436689E0,2.9700123E1,3.9997314E1,6.2267776E1,0E0,0E0,0E0,0E0,0E0,0E0,0E0,0E0,0E0,0E0,0E0,0E0,0E0,0E0,0E0,0E0],"parents":[2147483647,0,0,1,1,2,2,3,3,4,4,5,5,6,6,7,7,8,8,9,9,10,10,11,11,12,12,13,13,14,14],"right_children":[2,4,6,8,10,12,14,16,18,20,22,24,26,28,30,-1,-1,-1,-1,-1,-1,-1,-1,-1,-1,-1,-1,-1,-1,-1,-1],"split_conditions":[5E-1,1.535E2,2.45E1,5.5E0,1.585E2,1.595E2,5.15E1,2.03E2,4.15E1,1.555E2,1.615E2,2.525E2,1.615E2,2.75E1,6.55E1,-1.4819395E-2,-2.8778965E-2,-3.58487E-2,-3.812746E-2,-1.8902738E-2,-1.0638915E-3,-3.512053E-2,-1.1548205E-2,6.313371E-4,8.842603E-3,-1.9316256E-2,1.5651174E-2,7.253632E-3,1.6638609E-2,8.755491E-3,-1.615892E-3],"split_indices":[6,8,1,8,8,8,1,9,1,8,8,9,8,1,1,0,0,0,0,0,0,0,0,0,0,0,0,0,0,0,0],"split_type":[0,0,0,0,0,0,0,0,0,0,0,0,0,0,0,0,0,0,0,0,0,0,0,0,0,0,0,0,0,0,0],"sum_hessian":[1.3753071E4,3.3836118E3,1.0369459E4,3.0520308E3,3.315811E2,1.1500452E3,9.219414E3,2.4792196E1,3.0272385E3,1.13498184E2,2.1808292E2,9.249831E2,2.2506215E2,6.544882E3,2.674532E3,1.631894E1,8.473257E0,2.0650298E3,9.622088E2,3.465534E1,7.884284E1,2.111275E2,6.955414E0,7.755507E2,1.4943233E2,2.0130399E2,2.3758167E1,4.4036584E2,6.104516E3,1.9662343E3,7.082978E2],"tree_param":{"num_deleted":"0","num_feature":"10","num_nodes":"31","size_leaf_vector":"0"}},{"base_weights":[-1.1398613E-3,3.4270045E-1,-1.2757444E0,-6.8181115E-1,4.0735573E-1,-1.3060491E0,-1.2539213E0,-1.3196727E0,-6.62564E-1,4.262801E-1,5.114437E-2,-1.7907204E-1,-6.888078E-1,3.1984732E-1,4.7296482E-1,1.8514827E-1,-2.2244635E-1],"categories":[],"categories_nodes":[],"categories_segments":[],"categories_sizes":[],"default_left":[true,true,true,true,true,false,false,false,true,true,true,false,false,false,false,false,false],"id":33,"left_children":[1,3,5,7,9,-1,-1,-1,11,13,15,-1,-1,-1,-1,-1,-1],"loss_changes":[5.988934E3,7.131564E2,2.8173828E-1,6.97348E0,6.822363E1,0E0,0E0,0E0,7.775543E0,4.7613403E1,1.8806757E1,0E0,0E0,0E0,0E0,0E0,0E0],"parents":[2147483647,0,0,1,1,2,2,3,3,4,4,8,8,9,9,10,10],"right_children":[2,4,6,8,10,-1,-1,-1,12,14,16,-1,-1,-1,-1,-1,-1],"split_conditions":[5E-1,5E-1,5E-1,2.5E0,4.65E1,-3.918147E-2,-3.761764E-2,-3.959018E-2,6.5E0,2.75E1,5E-1,-5.372161E-3,-2.0664234E-2,9.595419E-3,1.4188944E-2,5.554448E-3,-6.6733905E-3],"split_indices":[4,6,5,3,3,0,0,0,3,3,5,0,0,0,0,0,0],"split_type":[0,0,0,0,0,0,0,0,0,0,0,0,0,0,0,0,0],"sum_hessian":[1.366324E4,1.0761047E4,2.902194E3,6.382319E2,1.0122814E4,1.1903612E3,1.7118328E3,1.6715197E1,6.2151666E2,9.611965E3,5.1085034E2,3.24016E1,5.8911505E2,2.9330305E3,6.678934E3,3.431163E2,1.6773405E2],"tree_param":{"num_deleted":"0","num_feature":"10","num_nodes":"17","size_leaf_vector":"0"}},{"base_weights":[-1.1936044E-3,3.333818E-1,-1.2635733E0,-6.645208E-1,3.962451E-1,-1.2989259E0,-1.2424649E0,-8.124266E-1,-2.8928662E-2,4.5705482E-1,2.4303795E-1,-2.8188053E-1,-1.242931E0,-7.324257E-1,-1.1191939E0,3.1835702E-1,-5.9087425E-1,4.2406106E-1,6.003513E-1,4.9591625E-1,3.4353394E-2,-1.2493739E0,-1.1190441E0],"categories":[],"categories_nodes":[],"categories_segments":[],"categories_sizes":[],"default_left":[true,true,true,true,true,false,true,true,true,true,true,false,true,false,false,false,false,false,false,false,false,false,false],"id":34,"left_children":[1,3,5,7,9,-1,11,13,15,17,19,-1,21,-1,-1,-1,-1,-1,-1,-1,-1,-1,-1],"loss_changes":[5.7337563E3,6.734536E2,5.0878906E-1,5.9796844E1,9.3947876E1,0E0,4.5751953E-1,1.1847961E1,2.3833494E1,3.3910156E1,1.51478E2,0E0,4.0771484E-2,0E0,0E0,0E0,0E0,0E0,0E0,0E0,0E0,0E0,0E0],"parents":[2147483647,0,0,1,1,2,2,3,3,4,4,6,6,7,7,8,8,9,9,10,10,12,12],"right_children":[2,4,6,8,10,-1,12,14,16,18,20,-1,22,-1,-1,-1,-1,-1,-1,-1,-1,-1,-1],"split_conditions":[5E-1,5E-1,1.49E2,1.525E2,1.26E2,-3.8967777E-2,1.505E2,4.075E4,1.59E2,5E-1,5E-1,-8.4564155E-3,5E-1,-2.197277E-2,-3.3575818E-2,9.55071E-3,-1.7726228E-2,1.2721832E-2,1.8010538E-2,1.4877487E-2,1.0306018E-3,-3.7481215E-2,-3.357132E-2],"split_indices":[4,6,8,8,8,0,8,7,8,5,5,0,6,0,0,0,0,0,0,0,0,0,0],"split_type":[0,0,0,0,0,0,0,0,0,0,0,0,0,0,0,0,0,0,0,0,0,0,0],"sum_hessian":[1.3573483E4,1.0730308E4,2.8431763E3,6.35334E2,1.0094974E4,1.0403148E3,1.8028615E3,5.151723E2,1.20161674E2,7.225216E3,2.8697578E3,1.1681283E0,1.8016932E3,4.1129855E2,1.03873726E2,7.4533195E1,4.562848E1,5.876192E3,1.3490238E3,1.2968698E3,1.5728881E3,1.7039901E3,9.770314E1],"tree_param":{"num_deleted":"0","num_feature":"10","num_nodes":"23","size_leaf_vector":"0"}},{"base_weights":[-1.2449883E-3,3.2444647E-1,-1.2519401E0,-6.481075E-1,3.8558584E-1,-1.2853315E0,-1.2319173E0,-7.9294086E-1,-2.8204627E-2,4.449859E-1,2.3619905E-1,-1.2393667E0,-1.0919042E0,-8.973386E-1,-6.57073E-1,3.0875596E-1,-5.770039E-1,4.127675E-1,5.850818E-1,4.8305145E-1,3.332274E-2,-1.107331E0,3.2046817E-2],"categories":[],"categories_nodes":[],"categories_segments":[],"categories_sizes":[],"default_left":[true,true,true,true,true,false,true,true,true,true,true,false,true,false,false,false,false,false,false,false,false,false,false],"id":35,"left_children":[1,3,5,7,9,-1,11,13,15,17,19,-1,21,-1,-1,-1,-1,-1,-1,-1,-1,-1,-1],"loss_changes":[5.4917734E3,6.362811E2,2.788086E-1,5.6813293E1,8.920325E1,0E0,4.880371E-1,6.688446E0,2.254054E1,3.2256958E1,1.434893E2,0E0,1.7275467E0,0E0,0E0,0E0,0E0,0E0,0E0,0E0,0E0,0E0,0E0],"parents":[2147483647,0,0,1,1,2,2,3,3,4,4,6,6,7,7,8,8,9,9,10,10,12,12],"right_children":[2,4,6,8,10,-1,12,14,16,18,20,-1,22,-1,-1,-1,-1,-1,-1,-1,-1,-1,-1],"split_conditions":[5E-1,5E-1,1.49E2,1.525E2,1.26E2,-3.8559943E-2,5E-1,5E-1,1.59E2,5E-1,5E-1,-3.7180997E-2,2.965E2,-2.6920158E-2,-1.9712191E-2,9.262679E-3,-1.7310116E-2,1.2383025E-2,1.7552454E-2,1.4491543E-2,9.996822E-4,-3.321993E-2,9.6140447E-4],"split_indices":[4,6,8,8,8,0,6,5,8,5,5,0,9,0,0,0,0,0,0,0,0,0,0],"split_type":[0,0,0,0,0,0,0,0,0,0,0,0,0,0,0,0,0,0,0,0,0,0,0],"sum_hessian":[1.3480019E4,1.0695549E4,2.7844697E3,6.3203674E2,1.0063512E4,1.020095E3,1.7643748E3,5.1210913E2,1.1992762E2,7.1990176E3,2.8644944E3,1.6677883E3,9.658646E1,2.8642334E2,2.2568579E2,7.4575775E1,4.535184E1,5.856193E3,1.3428247E3,1.2915741E3,1.5729204E3,9.529329E1,1.293169E0],"tree_param":{"num_deleted":"0","num_feature":"10","num_nodes":"23","size_leaf_vector":"0"}},{"base_weights":[-1.2932614E-3,-5.125428E-1,1.6663367E-1,1.4906487E-1,-5.8766574E-1,2.4114065E-1,-1.8725649E-1,-1.03374235E-1,4.0054762E-1,4.3672764E-1,-6.2705195E-1,2.1595338E-1,5.37796E-1,-2.743582E-1,1.9769365E-1,-4.297416E-1,1.2702896E-1,1.5181889E-1,6.017211E-1,2.744177E-1,6.317735E-1,-6.3792753E-1,5.1454544E-1,1.756151E-1,4.4518068E-1,6.255429E-1,-7.375929E-1,-3.244595E-1,2.8275204E-1,3.8187742E-1,-5.9165988E-2],"categories":[],"categories_nodes":[],"categories_segments":[],"categories_sizes":[],"default_left":[true,true,true,true,true,true,true,true,true,true,true,true,true,true,true,false,false,false,false,false,false,false,false,false,false,false,false,false,false,false,false],"id":36,"left_children":[1,3,5,7,9,11,13,15,17,19,21,23,25,27,29,-1,-1,-1,-1,-1,-1,-1,-1,-1,-1,-1,-1,-1,-1,-1,-1],"loss_changes":[1.1495013E3,1.6462598E2,2.6579453E2,2.1522078E1,1.20230835E2,6.2097412E1,5.8847553E1,1.2812006E1,8.400421E0,3.330183E0,3.5879883E1,7.090216E1,7.330911E1,4.0015236E1,1.5356769E1,0E0,0E0,0E0,0E0,0E0,0E0,0E0,0E0,0E0,0E0,0E0,0E0,0E0,0E0,0E0,0E0],"parents":[2147483647,0,0,1,1,2,2,3,3,4,4,5,5,6,6,7,7,8,8,9,9,10,10,11,11,12,12,13,13,14,14],"right_children":[2,4,6,8,10,12,14,16,18,20,22,24,26,28,30,-1,-1,-1,-1,-1,-1,-1,-1,-1,-1,-1,-1,-1,-1,-1,-1],"split_conditions":[2.85E1,1.435E2,5.85E1,1.23E2,5E-1,1.5E0,1.5E0,2.35E1,5E-1,2.55E1,1.615E2,1.535E2,1.53E2,1.53E2,3.65E1,-1.2892247E-2,3.8108686E-3,4.5545665E-3,1.8051634E-2,8.232531E-3,1.8953204E-2,-1.9137826E-2,1.54363625E-2,5.268453E-3,1.335542E-2,1.8766286E-2,-2.2127787E-2,-9.733785E-3,8.4825605E-3,1.1456323E-2,-1.7749796E-3],"split_indices":[1,8,1,8,5,5,5,1,5,1,8,8,8,8,8,0,0,0,0,0,0,0,0,0,0,0,0,0,0,0,0],"split_type":[0,0,0,0,0,0,0,0,0,0,0,0,0,0,0,0,0,0,0,0,0,0,0,0,0,0,0,0,0,0,0],"sum_hessian":[1.3387254E4,3.3095022E3,1.0077752E4,3.373631E2,2.972139E3,8.325289E3,1.7524633E3,1.6865533E2,1.6870775E2,1.09669205E2,2.8624697E3,7.6753477E3,6.499411E2,1.4293378E3,3.231255E2,6.943505E1,9.922028E1,7.622216E1,9.2485596E1,6.117149E1,4.849772E1,2.8358945E3,2.6575344E1,6.528297E3,1.147051E3,6.085802E2,4.1360855E1,1.3117856E3,1.1755211E2,1.8790187E2,1.3522362E2],"tree_param":{"num_deleted":"0","num_feature":"10","num_nodes":"31","size_leaf_vector":"0"}},{"base_weights":[-1.2606193E-3,-5.001969E-1,1.6187002E-1,-6.126059E-1,-3.7310287E-1,2.3049562E-1,-2.0079595E-1,-3.5195234E-1,-6.5259343E-1,-8.1653243E-1,-3.5199758E-1,2.6432794E-1,8.0656774E-2,-1.2202044E-1,-4.3803483E-1,-3.839142E-1,1.8907934E-1,-6.7972875E-1,-4.6687818E-1,-6.122927E-1,-1.0085417E0,-1.353396E-1,-3.874377E-1,2.1933673E-1,3.5965422E-1,5.1916137E-2,2.3429918E-1,-1.0269021E0,-1.13810696E-1,-1.4828257E-1,-5.2198607E-1],"categories":[],"categories_nodes":[],"categories_segments":[],"categories_sizes":[],"default_left":[true,true,true,true,true,true,true,true,true,true,true,true,true,true,true,false,false,false,false,false,false,false,false,false,false,false,false,false,false,false,false],"id":37,"left_children":[1,3,5,7,9,11,13,15,17,19,21,23,25,27,29,-1,-1,-1,-1,-1,-1,-1,-1,-1,-1,-1,-1,-1,-1,-1,-1],"loss_changes":[1.0870251E3,4.6784485E1,2.5053918E2,1.7955078E1,1.4190872E1,4.2884705E1,2.9885712E1,4.1229496E0,7.2995605E0,2.109127E0,1.1300125E1,2.953247E1,6.878502E0,8.827772E0,9.627266E0,0E0,0E0,0E0,0E0,0E0,0E0,0E0,0E0,0E0,0E0,0E0,0E0,0E0,0E0,0E0,0E0],"parents":[2147483647,0,0,1,1,2,2,3,3,4,4,5,5,6,6,7,7,8,8,9,9,10,10,11,11,12,12,13,13,14,14],"right_children":[2,4,6,8,10,12,14,16,18,20,22,24,26,28,30,-1,-1,-1,-1,-1,-1,-1,-1,-1,-1,-1,-1,-1,-1,-1,-1],"split_conditions":[2.85E1,5E-1,5.95E1,1.4286E4,2.05E1,5.15E1,7.15E1,2.845E2,2.65E1,2.99795E4,1.07045E4,3.7594E4,4.82345E4,5E-1,7.05E1,-1.1517426E-2,5.6723803E-3,-2.0391863E-2,-1.4006345E-2,-1.836878E-2,-3.025625E-2,-4.060188E-3,-1.1623131E-2,6.580102E-3,1.0789626E-2,1.557484E-3,7.0289755E-3,-3.0807061E-2,-3.4143208E-3,-4.448477E-3,-1.5659582E-2],"split_indices":[1,0,1,7,1,1,1,9,1,7,7,7,7,2,9,0,0,0,0,0,0,0,0,0,0,0,0,0,0,0,0],"split_type":[0,0,0,0,0,0,0,0,0,0,0,0,0,0,0,0,0,0,0,0,0,0,0,0,0,0,0,0,0,0,0],"sum_hessian":[1.335347E4,3.2897324E3,1.0063737E4,1.7436929E3,1.5460397E3,8.462737E3,1.6010001E3,2.332279E2,1.510465E3,6.852914E1,1.4775105E3,6.9032734E3,1.5594639E3,1.2030425E3,3.9795767E2,2.2049255E2,1.2735357E1,1.3155819E3,1.9488307E2,3.5236755E1,3.3292377E1,2.0838683E2,1.2691238E3,4.692059E3,2.2112139E3,1.3148445E3,2.4461935E2,9.701082E0,1.1933413E3,9.002129E1,3.0793637E2],"tree_param":{"num_deleted":"0","num_feature":"10","num_nodes":"31","size_leaf_vector":"0"}},{"base_weights":[-1.2421837E-3,-1.1182212E0,3.406149E-1,-1.1573697E0,-7.696173E-1,3.6021268E-1,-1.12896025E-1,-6.1677116E-1,-1.1618532E0,-2.3123962E-1,-1.083957E0,3.7501788E-1,-5.557234E-2,-6.686825E-1,7.330418E-1,-4.096376E-1,-7.445697E-1,-1.1622858E0,-4.8544854E-1,-6.427056E-1,-1.4926891E-2,-1.1087936E0,-3.2129005E-1,4.6393E-1,3.218105E-1,-7.400861E-2,8.719141E-1,-1.5704323E0,-6.055012E-1,8.869305E-1,6.6045034E-1],"categories":[],"categories_nodes":[],"categories_segments":[],"categories_sizes":[],"default_left":[true,true,true,true,true,true,true,true,true,true,true,true,true,true,true,false,false,false,false,false,false,false,false,false,false,false,false,false,false,false,false],"id":38,"left_children":[1,3,5,7,9,11,13,15,17,19,21,23,25,27,29,-1,-1,-1,-1,-1,-1,-1,-1,-1,-1,-1,-1,-1,-1,-1,-1],"loss_changes":[5.089251E3,4.1732666E1,9.073865E1,6.0842285E0,5.3618668E1,6.0238403E1,1.995926E2,3.6236477E-1,2.4975586E-1,1.0547512E1,3.4454498E0,4.4537964E1,5.830784E0,1.3639542E1,1.2952805E0,0E0,0E0,0E0,0E0,0E0,0E0,0E0,0E0,0E0,0E0,0E0,0E0,0E0,0E0,0E0,0E0],"parents":[2147483647,0,0,1,1,2,2,3,3,4,4,5,5,6,6,7,7,8,8,9,9,10,10,11,11,12,12,13,13,14,14],"right_children":[2,4,6,8,10,12,14,16,18,20,22,24,26,28,30,-1,-1,-1,-1,-1,-1,-1,-1,-1,-1,-1,-1,-1,-1,-1,-1],"split_conditions":[5E-1,1.525E2,1.595E2,5.5E0,1.585E2,4.75E1,1.615E2,5E-1,5.15E1,1.555E2,1.615E2,2.65E1,5.15E1,5E-1,1.95E1,-1.2289127E-2,-2.233709E-2,-3.4868572E-2,-1.4563456E-2,-1.9281168E-2,-4.4780673E-4,-3.3263806E-2,-9.638702E-3,1.39179E-2,9.654315E-3,-2.2202581E-3,2.6157422E-2,-4.7112968E-2,-1.8165035E-2,2.6607916E-2,1.981351E-2],"split_indices":[6,8,8,8,8,3,8,0,3,8,8,8,3,5,3,0,0,0,0,0,0,0,0,0,0,0,0,0,0,0,0],"split_type":[0,0,0,0,0,0,0,0,0,0,0,0,0,0,0,0,0,0,0,0,0,0,0,0,0,0,0,0,0,0,0],"sum_hessian":[1.332598E4,3.1222185E3,1.0203763E4,2.8049048E3,3.173137E2,9.781285E3,4.224773E2,2.4210915E1,2.7806938E3,1.1761207E2,1.9970161E2,9.445065E3,3.3621994E2,2.5509067E2,1.6738663E2,1.0842664E1,1.3368251E1,2.7781987E3,2.4949996E0,3.9846195E1,7.776587E1,1.9296382E2,6.737791E0,3.5331978E3,5.911867E3,3.3056918E2,5.6507397E0,1.5140676E1,2.3995E2,5.005518E1,1.1733145E2],"tree_param":{"num_deleted":"0","num_feature":"10","num_nodes":"31","size_leaf_vector":"0"}},{"base_weights":[-1.2822426E-3,-5.030954E-1,1.4643598E-1,2.1997319E-1,-5.4840595E-1,2.1010631E-1,-1.9869106E-1,2.5290105E-1,-1.3308529E0,-5.342692E-1,-1.0601968E0,1.8568727E-1,4.997286E-1,-2.8422272E-1,1.7824493E-1,2.9703128E-1,-3.0476025E-1,-6.2426203E-1,-4.5653948E-1,-1.0877309E0,-5.735131E-1,2.1442896E-1,-3.873659E-2,2.806494E-1,6.25366E-1,-2.1931455E-1,-6.7966807E-1,3.8000005E-1,3.842805E-2],"categories":[],"categories_nodes":[],"categories_segments":[],"categories_sizes":[],"default_left":[true,true,true,true,true,true,true,true,false,true,true,true,true,true,true,false,false,false,false,false,false,false,false,false,false,false,false,false,false],"id":39,"left_children":[1,3,5,7,9,11,13,15,-1,17,19,21,23,25,27,-1,-1,-1,-1,-1,-1,-1,-1,-1,-1,-1,-1,-1,-1],"loss_changes":[9.818561E2,9.881329E1,2.2491103E2,9.444045E0,1.9944946E1,6.10112E1,5.1452385E1,4.409075E0,0E0,1.902716E1,3.8372803E-1,5.1415283E1,1.8299683E1,3.3215385E1,8.320617E0,0E0,0E0,0E0,0E0,0E0,0E0,0E0,0E0,0E0,0E0,0E0,0E0,0E0,0E0],"parents":[2147483647,0,0,1,1,2,2,3,3,4,4,5,5,6,6,7,7,9,9,10,10,11,11,12,12,13,13,14,14],"right_children":[2,4,6,8,10,12,14,16,-1,18,20,22,24,26,28,-1,-1,-1,-1,-1,-1,-1,-1,-1,-1,-1,-1,-1,-1],"split_conditions":[2.75E1,5E-1,5.95E1,4.85E1,4.95E1,1.5E0,1.5E0,4.98915E4,-3.9925586E-2,2.75E1,2.745E2,5E-1,3.37695E4,7.45E1,1.315E2,8.910938E-3,-9.142808E-3,-1.8727861E-2,-1.3696184E-2,-3.2631926E-2,-1.7205393E-2,6.4328685E-3,-1.1620977E-3,8.419482E-3,1.876098E-2,-6.5794364E-3,-2.0390041E-2,1.1400001E-2,1.1528415E-3],"split_indices":[1,5,1,3,3,5,5,7,0,3,9,5,7,1,9,0,0,0,0,0,0,0,0,0,0,0,0,0,0],"split_type":[0,0,0,0,0,0,0,0,0,0,0,0,0,0,0,0,0,0,0,0,0,0,0,0,0,0,0,0,0],"sum_hessian":[1.3243609E4,3.011351E3,1.0232259E4,1.7734921E2,2.834002E3,8.63891E3,1.5933479E3,1.7448146E2,2.8677466E0,2.759814E3,7.4187996E1,7.9686846E3,6.7022577E2,1.2988646E3,2.9448328E2,1.6211958E2,1.2361887E1,1.2757562E3,1.4840576E3,6.904669E1,5.1413045E0,7.064046E3,9.046388E2,2.4545293E2,4.2477286E2,1.1170648E3,1.8179979E2,1.19838715E2,1.7464456E2],"tree_param":{"num_deleted":"0","num_feature":"10","num_nodes":"29","size_leaf_vector":"0"}},{"base_weights":[-1.2610209E-3,-4.6780723E-1,1.4943497E-1,2.7766758E-1,-5.213741E-1,2.1813588E-1,-1.7570995E-1,4.1558546E-1,7.595369E-2,-6.267697E-1,-3.9838713E-1,1.946493E-1,4.9709883E-1,-2.5637573E-1,1.7987502E-1,3.200467E-1,7.742405E-1,-2.8867412E-1,2.7236024E-1,-4.2868346E-1,-6.543322E-1,-8.683763E-1,-3.7776247E-1,2.4246155E-1,5.3846274E-2,2.752009E-1,6.2512076E-1,-1.9664118E-1,-6.6124135E-1,9.632488E-2,4.5284733E-1],"categories":[],"categories_nodes":[],"categories_segments":[],"categories_sizes":[],"default_left":[true,true,true,true,true,true,true,true,true,true,true,true,true,true,true,false,false,false,false,false,false,false,false,false,false,false,false,false,false,false,false],"id":40,"left_children":[1,3,5,7,9,11,13,15,17,19,21,23,25,27,29,-1,-1,-1,-1,-1,-1,-1,-1,-1,-1,-1,-1,-1,-1,-1,-1],"loss_changes":[9.291516E2,1.289892E2,2.2317403E2,6.004135E0,3.8774292E1,5.393759E1,5.004227E1,4.1597958E0,6.4756737E0,8.561523E0,1.3165985E1,5.1207275E1,1.8002853E1,3.4239494E1,7.320383E0,0E0,0E0,0E0,0E0,0E0,0E0,0E0,0E0,0E0,0E0,0E0,0E0,0E0,0E0,0E0,0E0],"parents":[2147483647,0,0,1,1,2,2,3,3,4,4,5,5,6,6,7,7,8,8,9,9,10,10,11,11,12,12,13,13,14,14],"right_children":[2,4,6,8,10,12,14,16,18,20,22,24,26,28,30,-1,-1,-1,-1,-1,-1,-1,-1,-1,-1,-1,-1,-1,-1,-1,-1],"split_conditions":[2.85E1,5E-1,5.85E1,3.1107E4,5E-1,1.5E0,1.5E0,2.75E1,2.25E1,1.4286E4,2.05E1,4.85E1,3.37695E4,7.45E1,5.03095E4,9.6014E-3,2.3227215E-2,-8.660223E-3,8.170807E-3,-1.2860503E-2,-1.9629966E-2,-2.6051288E-2,-1.1332874E-2,7.2738463E-3,1.6153882E-3,8.256027E-3,1.8753622E-2,-5.899235E-3,-1.983724E-2,2.8897463E-3,1.3585419E-2],"split_indices":[1,5,1,7,0,5,5,1,1,7,1,1,7,1,7,0,0,0,0,0,0,0,0,0,0,0,0,0,0,0,0],"split_type":[0,0,0,0,0,0,0,0,0,0,0,0,0,0,0,0,0,0,0,0,0,0,0,0,0,0,0,0,0,0,0],"sum_hessian":[1.3213708E4,3.225534E3,9.988174E3,2.1595583E2,3.0095781E3,8.246147E3,1.742026E3,1.2763062E2,8.83252E1,1.618491E3,1.391087E3,7.607363E3,6.3878503E2,1.4201407E3,3.2188525E2,1.02278076E2,2.5352552E1,3.075637E1,5.7568836E1,1.9971713E2,1.4187739E3,5.675123E1,1.3343358E3,5.678427E3,1.9289358E3,2.3485872E2,4.0392633E2,1.2388452E3,1.8129556E2,2.474881E2,7.4397156E1],"tree_param":{"num_deleted":"0","num_feature":"10","num_nodes":"31","size_leaf_vector":"0"}},{"base_weights":[-1.2332681E-3,-1.1013404E0,3.2869676E-1,-1.1410886E0,-7.489297E-1,3.4696102E-1,-9.53761E-2,-6.025079E-1,-1.1456563E0,-2.3106885E-1,-1.0610789E0,4.306083E-1,2.9693693E-1,-6.262139E-1,7.12211E-1,-3.9809716E-1,-7.2904164E-1,-1.1298915E0,-1.2037488E0,-6.318246E-1,-2.1813972E-2,-1.0861396E0,-3.1406456E-1,1.0757584E-1,4.661915E-1,2.5867036E-1,4.5112363E-1,-6.5360826E-1,1.334187E-1,7.5577134E-1,-1.19711466E-1],"categories":[],"categories_nodes":[],"categories_segments":[],"categories_sizes":[],"default_left":[true,true,true,true,true,true,true,true,true,true,true,true,true,true,true,false,false,false,false,false,false,false,false,false,false,false,false,false,false,false,false],"id":41,"left_children":[1,3,5,7,9,11,13,15,17,19,21,23,25,27,29,-1,-1,-1,-1,-1,-1,-1,-1,-1,-1,-1,-1,-1,-1,-1,-1],"loss_changes":[4.786042E3,4.176001E1,7.860193E1,6.031006E0,5.007057E1,4.056653E1,1.8034149E2,3.585806E-1,1.1196289E0,9.910064E0,3.2893066E0,4.175891E1,3.5809753E1,5.3672943E0,6.138733E0,0E0,0E0,0E0,0E0,0E0,0E0,0E0,0E0,0E0,0E0,0E0,0E0,0E0,0E0,0E0,0E0],"parents":[2147483647,0,0,1,1,2,2,3,3,4,4,5,5,6,6,7,7,8,8,9,9,10,10,11,11,12,12,13,13,14,14],"right_children":[2,4,6,8,10,12,14,16,18,20,22,24,26,28,30,-1,-1,-1,-1,-1,-1,-1,-1,-1,-1,-1,-1,-1,-1,-1,-1],"split_conditions":[5E-1,1.525E2,1.595E2,5.5E0,1.585E2,2.65E1,1.615E2,5E-1,4.03155E4,1.555E2,1.615E2,2.45E1,1.525E2,5.04395E4,4.9502E4,-1.1942915E-2,-2.1871248E-2,-3.3896744E-2,-3.6112465E-2,-1.8954737E-2,-6.544191E-4,-3.2584187E-2,-9.421936E-3,3.227275E-3,1.3985745E-2,7.760111E-3,1.3533709E-2,-1.9608248E-2,4.002561E-3,2.267314E-2,-3.591344E-3],"split_indices":[6,8,8,8,8,8,8,0,7,8,8,8,8,7,7,0,0,0,0,0,0,0,0,0,0,0,0,0,0,0,0],"split_type":[0,0,0,0,0,0,0,0,0,0,0,0,0,0,0,0,0,0,0,0,0,0,0,0,0,0,0,0,0,0,0],"sum_hessian":[1.3184204E4,3.041245E3,1.0142959E4,2.7309812E3,3.1026382E2,9.724327E3,4.186325E2,2.4084602E1,2.7068967E3,1.17338135E2,1.9292569E2,3.6363057E3,6.0880215E3,2.5273259E2,1.6589992E2,1.0793793E1,1.329081E1,2.145196E3,5.617007E2,3.955834E1,7.77798E1,1.8622432E2,6.701371E0,3.612071E2,3.2750984E3,4.8796504E3,1.2083711E3,2.4407033E2,8.662249E0,1.5773242E2,8.167499E0],"tree_param":{"num_deleted":"0","num_feature":"10","num_nodes":"31","size_leaf_vector":"0"}},{"base_weights":[-1.2730086E-3,-4.707135E-1,1.3515763E-1,-5.775239E-1,-3.5007685E-1,1.9883332E-1,-1.741211E-1,-3.5024148E-1,-6.1262643E-1,-7.5395674E-1,-3.2929945E-1,-1.08011305E-1,2.1657287E-1,-3.995624E-2,-3.0528173E-1,-3.8970885E-1,1.9000727E-1,-8.0974257E-1,-5.943877E-1,-5.536794E-1,-9.4347125E-1,-1.3102125E-1,-3.603206E-1,-1.12314716E-1,6.11967E-1,2.5271976E-1,7.938652E-2,-1.0785406E0,-3.0904908E-2,-5.943156E-2,-3.7167993E-1],"categories":[],"categories_nodes":[],"categories_segments":[],"categories_sizes":[],"default_left":[true,true,true,true,true,true,true,true,true,true,true,true,true,true,true,false,false,false,false,false,false,false,false,false,false,false,false,false,false,false,false],"id":42,"left_children":[1,3,5,7,9,11,13,15,17,19,21,23,25,27,29,-1,-1,-1,-1,-1,-1,-1,-1,-1,-1,-1,-1,-1,-1,-1,-1],"loss_changes":[8.392994E2,3.7820984E1,1.9999724E2,1.2260193E1,1.1401779E1,4.585916E1,3.0503181E1,4.584078E0,4.3832397E0,2.0263557E0,8.085098E0,1.4967055E0,3.9456055E1,8.036007E0,1.428952E1,0E0,0E0,0E0,0E0,0E0,0E0,0E0,0E0,0E0,0E0,0E0,0E0,0E0,0E0,0E0,0E0],"parents":[2147483647,0,0,1,1,2,2,3,3,4,4,5,5,6,6,7,7,8,8,9,9,10,10,11,11,12,12,13,13,14,14],"right_children":[2,4,6,8,10,12,14,16,18,20,22,24,26,28,30,-1,-1,-1,-1,-1,-1,-1,-1,-1,-1,-1,-1,-1,-1,-1,-1],"split_conditions":[2.75E1,5E-1,5.85E1,1.65595E4,2.05E1,2.95E1,6.55E1,2.815E2,2.2901E4,2.99795E4,1.07045E4,2.985E2,5.05E1,5E-1,6.75E1,-1.1691265E-2,5.700218E-3,-2.4292277E-2,-1.7831631E-2,-1.6610382E-2,-2.8304137E-2,-3.930637E-3,-1.0809618E-2,-3.3694415E-3,1.8359011E-2,7.5815925E-3,2.3815956E-3,-3.2356218E-2,-9.271472E-4,-1.7829468E-3,-1.1150397E-2],"split_indices":[1,0,1,7,1,1,1,9,7,7,7,9,1,2,9,0,0,0,0,0,0,0,0,0,0,0,0,0,0,0,0],"split_type":[0,0,0,0,0,0,0,0,0,0,0,0,0,0,0,0,0,0,0,0,0,0,0,0,0,0,0,0,0,0,0],"sum_hessian":[1.3102627E4,2.9499102E3,1.0152717E4,1.562607E3,1.3873032E3,8.419607E3,1.7331095E3,2.1051816E2,1.3520889E3,6.6150734E1,1.3211525E3,4.5988022E2,7.959727E3,8.573879E2,8.757216E2,1.9644565E2,1.4072501E1,1.10834946E2,1.2412539E3,3.4068737E1,3.2081997E1,1.7944095E2,1.1417115E3,4.5798676E2,1.8934455E0,6.299141E3,1.6605863E3,6.3867764E0,8.510011E2,1.8662115E2,6.8910046E2],"tree_param":{"num_deleted":"0","num_feature":"10","num_nodes":"31","size_leaf_vector":"0"}},{"base_weights":[-1.2531673E-3,-4.5889473E-1,1.31251E-1,1.3640466E-1,-5.248965E-1,1.8991546E-1,-1.8560715E-1,-1.5089008E-1,3.8074788E-1,3.323713E-1,-5.541609E-1,2.4064614E-1,1.0880173E-2,-2.6497218E-1,1.6298944E-1,-4.5284057E-1,1.1643638E-1,-2.3505929E-1,4.5773482E-1,3.6727983E-1,-1.1657815E0,-5.644593E-1,4.7677803E-1,1.8368642E-1,5.9863985E-1,-6.5414643E-1,3.6374074E-1,-3.123642E-1,2.6655295E-1,3.2843617E-1,-7.0037656E-2],"categories":[],"categories_nodes":[],"categories_segments":[],"categories_sizes":[],"default_left":[true,true,true,true,true,true,true,true,true,true,true,true,true,true,true,false,false,false,false,false,false,false,false,false,false,false,false,false,false,false,false],"id":43,"left_children":[1,3,5,7,9,11,13,15,17,19,21,23,25,27,29,-1,-1,-1,-1,-1,-1,-1,-1,-1,-1,-1,-1,-1,-1,-1,-1],"loss_changes":[7.931012E2,1.1545276E2,1.8856503E2,2.068761E1,6.650812E1,7.772998E1,4.3893227E1,1.1013302E1,7.650238E0,5.024873E0,2.7414917E1,1.3587378E2,4.439095E2,3.2613914E1,1.1378874E1,0E0,0E0,0E0,0E0,0E0,0E0,0E0,0E0,0E0,0E0,0E0,0E0,0E0,0E0,0E0,0E0],"parents":[2147483647,0,0,1,1,2,2,3,3,4,4,5,5,6,6,7,7,8,8,9,9,10,10,11,11,12,12,13,13,14,14],"right_children":[2,4,6,8,10,12,14,16,18,20,22,24,26,28,30,-1,-1,-1,-1,-1,-1,-1,-1,-1,-1,-1,-1,-1,-1,-1,-1],"split_conditions":[2.75E1,1.415E2,5.95E1,1.145E2,5E-1,1.505E2,1.5E0,2.35E1,2.15E1,4.85E1,1.615E2,5E-1,1.525E2,1.53E2,3.65E1,-1.3585216E-2,3.4930913E-3,-7.0517785E-3,1.3732044E-2,1.10183945E-2,-3.4973443E-2,-1.693378E-2,1.4303341E-2,5.5105924E-3,1.7959194E-2,-1.9624393E-2,1.0912222E-2,-9.370926E-3,7.996588E-3,9.853085E-3,-2.1011296E-3],"split_indices":[1,8,1,8,5,8,5,1,1,3,8,5,8,8,8,0,0,0,0,0,0,0,0,0,0,0,0,0,0,0,0],"split_type":[0,0,0,0,0,0,0,0,0,0,0,0,0,0,0,0,0,0,0,0,0,0,0,0,0,0,0,0,0,0,0],"sum_hessian":[1.3076977E4,2.935593E3,1.0141384E4,2.9288312E2,2.64271E3,8.557427E3,1.5839574E3,1.347862E2,1.5809691E2,8.689395E1,2.555816E3,6.66774E3,1.8896862E3,1.2904095E3,2.9354785E2,6.2968296E1,7.1817894E1,1.7340399E1,1.4075652E2,8.565299E1,1.240959E0,2.5309856E3,2.4830399E1,5.7537803E3,9.139601E2,6.547822E2,1.2349039E3,1.1851511E3,1.0525844E2,1.7142703E2,1.22120804E2],"tree_param":{"num_deleted":"0","num_feature":"10","num_nodes":"31","size_leaf_vector":"0"}},{"base_weights":[-1.2262693E-3,2.9486072E-1,-1.2170923E0,-5.706024E-1,3.483863E-1,-1.1849769E0,-1.2486817E0,-4.066361E-1,-8.147921E-1,3.8870484E-1,7.429657E-2,-1.2654293E0,-3.776664E-1,-7.4291134E-1,-1.1050963E0,1.1847887E-2,4.2816776E-1,3.1096825E-1,1.1469686E-2],"categories":[],"categories_nodes":[],"categories_segments":[],"categories_sizes":[],"default_left":[true,true,true,true,true,false,false,true,true,true,true,false,false,false,false,false,false,false,false],"id":44,"left_children":[1,3,5,7,9,-1,-1,11,13,15,17,-1,-1,-1,-1,-1,-1,-1,-1],"loss_changes":[4.695164E3,4.8605E2,1.1115723E0,2.4142166E1,1.0912927E2,0E0,0E0,8.669777E0,4.2822113E0,1.2805444E2,1.8849636E1,0E0,0E0,0E0,0E0,0E0,0E0,0E0,0E0],"parents":[2147483647,0,0,1,1,2,2,3,3,4,4,7,7,8,8,9,9,10,10],"right_children":[2,4,6,8,10,-1,-1,12,14,16,18,-1,-1,-1,-1,-1,-1,-1,-1],"split_conditions":[5E-1,5E-1,2.85E1,4.05E1,5.95E1,-3.554931E-2,-3.746045E-2,2.5E0,6.15E1,2.35E1,6.85E1,-3.7962876E-2,-1.1329992E-2,-2.2287339E-2,-3.315289E-2,3.554366E-4,1.2845033E-2,9.329047E-3,3.4409057E-4],"split_indices":[4,6,1,1,1,0,0,3,1,1,9,0,0,0,0,0,0,0,0],"split_type":[0,0,0,0,0,0,0,0,0,0,0,0,0,0,0,0,0,0,0],"sum_hessian":[1.304005E4,1.0487015E4,2.5530344E3,6.1024304E2,9.876771E3,1.2850759E3,1.2679585E3,3.666879E2,2.4355515E2,8.609848E3,1.2669243E3,1.0573051E1,3.5611487E2,1.980709E2,4.5484234E1,8.1625024E2,7.793597E3,2.6493872E2,1.0019856E3],"tree_param":{"num_deleted":"0","num_feature":"10","num_nodes":"19","size_leaf_vector":"0"}},{"base_weights":[-1.2750347E-3,-1.4033972E-1,6.276674E-2,-2.5940287E-1,-5.430751E-2,2.0048736E-1,-1.1443445E-1,-2.3613821E-1,-6.155735E-1,-1.9996323E-2,-2.1455202E-1,1.1618174E-1,2.4434268E-1,-7.509282E-2,-3.869584E-1,-2.519395E-1,1.5603313E-1,4.213132E-2,-7.582662E-1,-5.811923E-1,-7.221169E-3,2.759619E-1,-2.426509E-1,1.5519775E-1,1.309304E-2,-9.645837E-1,2.4737903E-1,-1.8247896E-1,3.556733E-3,-4.0831417E-1,2.988907E-1],"categories":[],"categories_nodes":[],"categories_segments":[],"categories_sizes":[],"default_left":[true,true,true,true,true,true,true,true,true,true,true,true,true,true,true,false,false,false,false,false,false,false,false,false,false,false,false,false,false,false,false],"id":45,"left_children":[1,3,5,7,9,11,13,15,17,19,21,23,25,27,29,-1,-1,-1,-1,-1,-1,-1,-1,-1,-1,-1,-1,-1,-1,-1,-1],"loss_changes":[1.15361786E2,4.1822815E1,2.1646475E2,1.4048958E1,1.3039183E1,1.8423874E1,4.156201E1,1.0013687E1,9.830681E0,1.4012291E1,5.8319683E0,6.874607E0,1.2286316E1,2.864136E1,7.286087E0,0E0,0E0,0E0,0E0,0E0,0E0,0E0,0E0,0E0,0E0,0E0,0E0,0E0,0E0,0E0,0E0],"parents":[2147483647,0,0,1,1,2,2,3,3,4,4,5,5,6,6,7,7,8,8,9,9,10,10,11,11,12,12,13,13,14,14],"right_children":[2,4,6,8,10,12,14,16,18,20,22,24,26,28,30,-1,-1,-1,-1,-1,-1,-1,-1,-1,-1,-1,-1,-1,-1,-1,-1],"split_conditions":[2.75E1,5E-1,2.95E1,2.45E1,3.9927E4,3.35335E4,4.75E1,2.25E1,1.45925E4,5E-1,5.5E0,3.02885E4,5E-1,5E-1,5.05E1,-7.558185E-3,4.680994E-3,1.2639395E-3,-2.2747986E-2,-1.7435769E-2,-2.1663506E-4,8.278857E-3,-7.279527E-3,4.6559325E-3,3.927912E-4,-2.893751E-2,7.421371E-3,-5.4743686E-3,1.0670199E-4,-1.2249425E-2,8.966721E-3],"split_indices":[3,0,3,3,7,7,3,3,7,3,3,7,2,0,3,0,0,0,0,0,0,0,0,0,0,0,0,0,0,0,0],"split_type":[0,0,0,0,0,0,0,0,0,0,0,0,0,0,0,0,0,0,0,0,0,0,0,0,0,0,0,0,0,0,0],"sum_hessian":[1.2951352E4,4.0833328E3,8.868019E3,1.7120071E3,2.3713257E3,4.9898105E3,3.878208E3,1.6085983E3,1.0340886E2,1.9540531E3,4.1727258E2,1.7087092E3,3.2811013E3,3.3900894E3,4.8811865E2,1.5466389E3,6.1959297E1,1.8561083E1,8.484778E1,4.2501976E1,1.911551E3,2.213025E1,3.9514233E2,1.2392024E3,4.6950687E2,7.4268303E0,3.2736743E3,1.4326561E3,1.9574332E3,4.7377115E2,1.4347499E1],"tree_param":{"num_deleted":"0","num_feature":"10","num_nodes":"31","size_leaf_vector":"0"}},{"base_weights":[-1.2419759E-3,-4.3774012E-1,1.24056295E-1,-5.411945E-1,-3.2180265E-1,2.0624636E-1,-8.304992E-2,-5.2960014E-1,-9.898524E-1,-3.021016E-1,-1.0265235E0,-9.5087215E-2,2.2648974E-1,6.4237257E-3,-2.871078E-1,-6.174045E-1,-4.52786E-1,-1.0234973E0,-1.1042895E-1,-4.2435837E-1,-2.3310618E-1,-1.0781028E0,-2.850336E-1,1.44289285E-2,-2.699543E-1,-4.8459232E-1,2.3397529E-1,2.8188674E-2,-3.720166E-1,-2.5474426E-1,-8.174619E-1],"categories":[],"categories_nodes":[],"categories_segments":[],"categories_sizes":[],"default_left":[true,true,true,true,true,true,true,true,true,true,true,true,true,true,true,false,false,false,false,false,false,false,false,false,false,false,false,false,false,false,false],"id":46,"left_children":[1,3,5,7,9,11,13,15,17,19,21,23,25,27,29,-1,-1,-1,-1,-1,-1,-1,-1,-1,-1,-1,-1,-1,-1,-1,-1],"loss_changes":[7.080389E2,3.4457092E1,1.7123373E2,7.405243E0,1.862709E1,4.3948517E1,5.218937E1,9.75705E0,9.8911667E-1,1.1105583E1,1.0954437E0,8.69869E0,3.603253E1,1.638565E1,1.4746918E1,0E0,0E0,0E0,0E0,0E0,0E0,0E0,0E0,0E0,0E0,0E0,0E0,0E0,0E0,0E0,0E0],"parents":[2147483647,0,0,1,1,2,2,3,3,4,4,5,5,6,6,7,7,8,8,9,9,10,10,11,11,12,12,13,13,14,14],"right_children":[2,4,6,8,10,12,14,16,18,20,22,24,26,28,30,-1,-1,-1,-1,-1,-1,-1,-1,-1,-1,-1,-1,-1,-1,-1,-1],"split_conditions":[2.75E1,5E-1,5.25E1,4.95E1,4.95E1,2.95E1,6.55E1,2.75E1,5.05E1,1.75E1,2.745E2,2.85E1,1.5E0,4.65E1,4.65E1,-1.8522136E-2,-1.358358E-2,-3.070492E-2,-3.3128685E-3,-1.2730751E-2,-6.9931853E-3,-3.2343086E-2,-8.551008E-3,4.3286785E-4,-8.098628E-3,-1.4537769E-2,7.0192586E-3,8.456602E-4,-1.1160498E-2,-7.642328E-3,-2.4523856E-2],"split_indices":[1,0,1,3,3,1,1,3,3,3,9,3,3,3,3,0,0,0,0,0,0,0,0,0,0,0,0,0,0,0,0],"split_type":[0,0,0,0,0,0,0,0,0,0,0,0,0,0,0,0,0,0,0,0,0,0,0,0,0,0,0,0,0,0,0],"sum_hessian":[1.2943829E4,2.8863247E3,1.0057504E4,1.5233381E3,1.3629867E3,7.2001357E3,2.8573684E3,1.4870887E3,3.62494E1,1.3273094E3,3.5677277E1,4.530181E2,6.747117E3,1.9870648E3,8.7030365E2,6.906199E2,7.964688E2,3.4755886E1,1.4935154E0,4.769772E2,8.503322E2,3.293247E1,2.7448058E0,2.7912476E2,1.7389336E2,6.962295E1,6.6774946E3,1.8798746E3,1.0719027E2,8.2164514E2,4.8658485E1],"tree_param":{"num_deleted":"0","num_feature":"10","num_nodes":"31","size_leaf_vector":"0"}},{"base_weights":[-1.226926E-3,2.858866E-1,-1.2062327E0,-5.536037E-1,3.3768782E-1,-1.1737348E0,-1.2377311E0,-4.2680046E-1,-8.9566445E-1,3.9191008E-1,1.444605E-1,-1.1752211E0,-7.0174956E-1,-3.0982554E-1,-6.341163E-1,-6.206876E-1,-1.1023744E0,2.7232494E-2,4.3519828E-1,2.2568986E-1,-2.9853603E-2],"categories":[],"categories_nodes":[],"categories_segments":[],"categories_sizes":[],"default_left":[true,true,true,true,true,true,false,true,true,true,true,false,false,false,false,false,false,false,false,false,false],"id":47,"left_children":[1,3,5,7,9,11,-1,13,15,17,19,-1,-1,-1,-1,-1,-1,-1,-1,-1,-1],"loss_changes":[4.470375E3,4.539641E2,1.0922852E0,2.5939316E1,1.02924194E2,4.724121E-2,0E0,1.0586296E1,8.592697E0,1.2114209E2,3.0525425E1,0E0,0E0,0E0,0E0,0E0,0E0,0E0,0E0,0E0,0E0],"parents":[2147483647,0,0,1,1,2,2,3,3,4,4,5,5,7,7,8,8,9,9,10,10],"right_children":[2,4,6,8,10,12,-1,14,16,18,20,-1,-1,-1,-1,-1,-1,-1,-1,-1,-1],"split_conditions":[5E-1,5E-1,2.85E1,3.667E4,5.35E1,2.985E2,-3.713193E-2,4.05E1,3.75E1,2.35E1,6.55E1,-3.525663E-2,-2.1052487E-2,-9.294766E-3,-1.902349E-2,-1.8620627E-2,-3.307123E-2,8.169748E-4,1.3055948E-2,6.7706956E-3,-8.9560804E-4],"split_indices":[4,6,1,7,1,9,0,1,1,1,1,0,0,0,0,0,0,0,0,0,0],"split_type":[0,0,0,0,0,0,0,0,0,0,0,0,0,0,0,0,0,0,0,0,0],"sum_hessian":[1.2919153E4,1.0433866E4,2.4852869E3,6.058459E2,9.8280205E3,1.2420704E3,1.2432166E3,4.43636E2,1.6220987E2,7.673658E3,2.1543625E3,1.2366862E3,5.3842673E0,2.8520673E2,1.5842928E2,7.132809E1,9.088179E1,8.144048E2,6.8592534E3,1.4693564E3,6.850063E2],"tree_param":{"num_deleted":"0","num_feature":"10","num_nodes":"21","size_leaf_vector":"0"}},{"base_weights":[-1.2746936E-3,2.7818808E-1,-1.1968064E0,-5.3959155E-1,3.2857627E-1,-1.2314204E0,-1.1695881E0,-3.790365E-1,-7.784622E-1,3.881023E-1,1.599337E-1,-1.1701319E0,-2.791277E-1,-2.1835989E-1,-4.543823E-1,-7.0790434E-1,-1.0680573E0,7.8185305E-2,4.4244018E-1,2.290345E-1,-2.8956465E-2],"categories":[],"categories_nodes":[],"categories_segments":[],"categories_sizes":[],"default_left":[true,true,true,true,true,false,true,true,true,true,true,false,false,false,false,false,false,false,false,false,false],"id":48,"left_children":[1,3,5,7,9,-1,11,13,15,17,19,-1,-1,-1,-1,-1,-1,-1,-1,-1,-1],"loss_changes":[4.2878853E3,4.2881866E2,8.5058594E-1,2.2874237E1,9.8308105E1,0E0,3.421631E-1,4.298233E0,4.186447E0,1.2192236E2,3.339702E1,0E0,0E0,0E0,0E0,0E0,0E0,0E0,0E0,0E0,0E0],"parents":[2147483647,0,0,1,1,2,2,3,3,4,4,6,6,7,7,8,8,9,9,10,10],"right_children":[2,4,6,8,10,-1,12,14,16,18,20,-1,-1,-1,-1,-1,-1,-1,-1,-1,-1],"split_conditions":[5E-1,5E-1,5E-1,4.05E1,5.15E1,-3.6942612E-2,4E1,5E-1,6.15E1,2.45E1,6.55E1,-3.5103958E-2,-8.3738305E-3,-6.5507963E-3,-1.3631469E-2,-2.123713E-2,-3.2041717E-2,2.3455592E-3,1.3273206E-2,6.871035E-3,-8.686939E-4],"split_indices":[4,6,5,1,1,0,1,5,1,1,1,0,0,0,0,0,0,0,0,0,0],"split_type":[0,0,0,0,0,0,0,0,0,0,0,0,0,0,0,0,0,0,0,0,0],"sum_hessian":[1.2831888E4,1.040129E4,2.4305972E3,6.0312427E2,9.798166E3,1.0504651E3,1.3801322E3,3.6223654E2,2.4088771E2,7.2409985E3,2.557168E3,1.378976E3,1.1562302E0,1.1688175E2,2.4535478E2,1.9646489E2,4.4422825E1,1.0805428E3,6.1604556E3,1.8720956E3,6.850723E2],"tree_param":{"num_deleted":"0","num_feature":"10","num_nodes":"21","size_leaf_vector":"0"}},{"base_weights":[-1.3186195E-3,-4.113522E-1,1.1504896E-1,-5.1327544E-1,-2.9781386E-1,1.9171917E-1,-7.711812E-2,-5.016419E-1,-9.6644294E-1,-2.78518E-1,-1.0019307E0,-8.4953E-2,2.1019773E-1,5.1461877E-3,-2.6475927E-1,-5.890254E-1,-4.254999E-1,-1.0006889E0,-9.34371E-2,-6.930232E-1,-2.5776556E-1,-1.0544838E0,-2.630639E-1,1.9345215E-2,-2.522943E-1,-4.8118323E-1,2.1749748E-1,2.611941E-2,-3.6019033E-1,-2.3347495E-1,-7.8383714E-1],"categories":[],"categories_nodes":[],"categories_segments":[],"categories_sizes":[],"default_left":[true,true,true,true,true,true,true,true,true,true,true,true,true,true,true,false,false,false,false,false,false,false,false,false,false,false,false,false,false,false,false],"id":49,"left_children":[1,3,5,7,9,11,13,15,17,19,21,23,25,27,29,-1,-1,-1,-1,-1,-1,-1,-1,-1,-1,-1,-1,-1,-1,-1,-1],"loss_changes":[6.0821796E2,3.2456207E1,1.4630542E2,7.3361816E0,1.7864037E1,3.630484E1,4.3723045E1,9.386749E0,9.8433304E-1,1.1013725E1,1.0907288E0,7.7730265E0,3.3684906E1,1.5104936E1,1.3836273E1,0E0,0E0,0E0,0E0,0E0,0E0,0E0,0E0,0E0,0E0,0E0,0E0,0E0,0E0,0E0,0E0],"parents":[2147483647,0,0,1,1,2,2,3,3,4,4,5,5,6,6,7,7,8,8,9,9,10,10,11,11,12,12,13,13,14,14],"right_children":[2,4,6,8,10,12,14,16,18,20,22,24,26,28,30,-1,-1,-1,-1,-1,-1,-1,-1,-1,-1,-1,-1,-1,-1,-1,-1],"split_conditions":[2.75E1,5E-1,5.25E1,4.95E1,4.95E1,2.95E1,6.55E1,2.75E1,5.05E1,2.05E1,2.745E2,2.85E1,1.5E0,4.65E1,4.65E1,-1.7670762E-2,-1.2764996E-2,-3.0020667E-2,-2.8031128E-3,-2.0790696E-2,-7.7329664E-3,-3.1634513E-2,-7.891917E-3,5.803564E-4,-7.5688288E-3,-1.4435496E-2,6.524924E-3,7.835823E-4,-1.0805709E-2,-7.0042484E-3,-2.3515115E-2],"split_indices":[1,0,1,3,3,1,1,3,3,1,9,3,3,3,3,0,0,0,0,0,0,0,0,0,0,0,0,0,0,0,0],"split_type":[0,0,0,0,0,0,0,0,0,0,0,0,0,0,0,0,0,0,0,0,0,0,0,0,0,0,0,0,0,0,0],"sum_hessian":[1.2745004E4,2.8168828E3,9.928121E3,1.482512E3,1.3343708E3,7.096703E3,2.831418E3,1.4474603E3,3.5051582E1,1.300137E3,3.4233883E1,4.440793E2,6.652624E3,1.969108E3,8.6230994E2,6.708417E2,7.7661865E2,3.3587757E1,1.4638262E0,6.0444016E1,1.239693E3,3.1561832E1,2.6720493E0,2.7411624E2,1.6996306E2,6.882778E1,6.583796E3,1.8630809E3,1.0602715E2,8.1466095E2,4.7649017E1],"tree_param":{"num_deleted":"0","num_feature":"10","num_nodes":"31","size_leaf_vector":"0"}},{"base_weights":[-1.3010674E-3,-1.0470498E0,2.9027843E-1,-8.954501E-1,-1.0771645E0,3.0426E-1,-9.161095E-2,-9.0048623E-1,2.8334257E-1,-1.0487044E0,-1.1371768E0,1.9958244E-1,3.3738586E-1,-1.1694971E-1,6.70419E-1,-1.0520008E0,-8.57596E-1,-1.0330074E0,-1.1255397E0,-1.1380844E0,-2.731853E-1,-2.9279497E-1,2.179136E-1,3.6934683E-1,2.662257E-1,2.9431138E-2,-2.1099631E-1,1.1237098E0,1.0945562E-1],"categories":[],"categories_nodes":[],"categories_segments":[],"categories_sizes":[],"default_left":[true,true,true,true,true,true,true,true,false,true,true,true,true,true,true,false,false,false,false,false,false,false,false,false,false,false,false,false,false],"id":50,"left_children":[1,3,5,7,9,11,13,15,-1,17,19,21,23,25,27,-1,-1,-1,-1,-1,-1,-1,-1,-1,-1,-1,-1,-1,-1],"loss_changes":[3.8797354E3,1.1700684E1,5.3152954E1,3.0196838E0,2.7519531E0,3.32157E1,6.8784933E0,2.112732E0,0E0,7.421875E-1,2.6239014E-1,2.0911484E1,1.6480896E1,4.7101536E0,2.7966514E0,0E0,0E0,0E0,0E0,0E0,0E0,0E0,0E0,0E0,0E0,0E0,0E0,0E0,0E0],"parents":[2147483647,0,0,1,1,2,2,3,3,4,4,5,5,6,6,7,7,9,9,10,10,11,11,12,12,13,13,14,14],"right_children":[2,4,6,8,10,12,14,16,-1,18,20,22,24,26,28,-1,-1,-1,-1,-1,-1,-1,-1,-1,-1,-1,-1,-1,-1],"split_conditions":[5E-1,1.5472E4,4.75E1,1.4914E4,3.75185E4,1.75E1,5.05E1,9.5E0,8.500277E-3,4.15E1,5.15E1,1.5E0,3.05E1,1.275E2,3.29705E4,-3.1560022E-2,-2.572788E-2,-3.099022E-2,-3.3766188E-2,-3.414253E-2,-8.1955595E-3,-8.783849E-3,6.5374076E-3,1.1080405E-2,7.986771E-3,8.8293414E-4,-6.3298894E-3,3.371129E-2,3.2836685E-3],"split_indices":[6,7,3,7,7,3,3,3,0,3,3,3,3,9,7,0,0,0,0,0,0,0,0,0,0,0,0,0,0],"split_type":[0,0,0,0,0,0,0,0,0,0,0,0,0,0,0,0,0,0,0,0,0,0,0,0,0,0,0,0,0],"sum_hessian":[1.272183E4,2.773193E3,9.948637E3,4.6468295E2,2.3085103E3,9.597463E3,3.5117398E2,4.6294122E2,1.7417078E0,1.578431E3,7.300791E2,2.308775E3,7.288688E3,3.4069196E2,1.048204E1,9.694495E1,3.659963E2,1.3226622E3,2.5576884E2,7.2899603E2,1.0830556E0,8.233278E1,2.2264421E3,5.0267686E3,2.2619192E3,1.3353523E2,2.0715671E2,5.2425656E0,5.239475E0],"tree_param":{"num_deleted":"0","num_feature":"10","num_nodes":"29","size_leaf_vector":"0"}},{"base_weights":[-1.3316819E-3,2.6436806E-1,-1.1810565E0,-4.9881333E-1,3.109564E-1,-1.1585435E0,-1.220183E0,-3.7386718E-1,-8.383072E-1,3.6864927E-1,1.4824605E-1,-1.1656954E0,-1.037599E0,-3.0850253E-1,-7.4390644E-1,-5.6681436E-1,-1.0415825E0,-5.430177E-2,4.0374002E-1,2.1354134E-1,-2.9427592E-2,-1.0736966E0,-1.183395E-1],"categories":[],"categories_nodes":[],"categories_segments":[],"categories_sizes":[],"default_left":[true,true,true,true,true,true,false,true,true,true,true,false,true,false,false,false,false,false,false,false,false,false,false],"id":51,"left_children":[1,3,5,7,9,11,-1,13,15,17,19,-1,21,-1,-1,-1,-1,-1,-1,-1,-1,-1,-1],"loss_changes":[3.9656052E3,3.6729205E2,6.3500977E-1,2.4902481E1,9.130493E1,8.4472656E-2,0E0,1.0324394E1,8.191025E0,1.0664618E2,2.9580357E1,0E0,2.9465637E0,0E0,0E0,0E0,0E0,0E0,0E0,0E0,0E0,0E0,0E0],"parents":[2147483647,0,0,1,1,2,2,3,3,4,4,5,5,7,7,8,8,9,9,10,10,12,12],"right_children":[2,4,6,8,10,12,-1,14,16,18,20,-1,22,-1,-1,-1,-1,-1,-1,-1,-1,-1,-1],"split_conditions":[5E-1,5E-1,3.85E1,3.667E4,5.15E1,5E-1,-3.660549E-2,4.15E1,3.75E1,2.25E1,6.55E1,-3.497086E-2,3.65E1,-9.255076E-3,-2.2317193E-2,-1.700443E-2,-3.1247472E-2,-1.629053E-3,1.21122E-2,6.40624E-3,-8.8282774E-4,-3.2210898E-2,-3.550185E-3],"split_indices":[4,6,1,7,1,6,0,3,1,1,1,0,1,0,0,0,0,0,0,0,0,0,0],"split_type":[0,0,0,0,0,0,0,0,0,0,0,0,0,0,0,0,0,0,0,0,0,0,0],"sum_hessian":[1.2649377E4,1.0324786E4,2.324591E3,5.9345575E2,9.731331E3,1.4949957E3,8.295953E2,4.3533704E2,1.581187E2,7.1831167E3,2.5482139E3,1.4033695E3,9.1626175E1,3.7154086E2,6.379619E1,6.932166E1,8.879703E1,5.502592E2,6.632858E3,1.8632611E3,6.8495264E2,8.800247E1,3.6237028E0],"tree_param":{"num_deleted":"0","num_feature":"10","num_nodes":"23","size_leaf_vector":"0"}},{"base_weights":[-1.3775341E-3,-3.8835424E-1,1.0720182E-1,1.5092704E-1,-4.510785E-1,1.806523E-1,-7.6176345E-2,-9.561021E-2,3.9737403E-1,3.3391652E-1,-4.795433E-1,2.3598652E-1,4.7897217E-3,-1.392561E-1,2.1463855E-1,-3.2844132E-1,1.069712E-1,-2.4381582E-1,4.7572762E-1,2.3919787E-1,6.7238307E-1,-4.8977107E-1,4.8103848E-1,1.8518533E-1,5.7558966E-1,-5.9347457E-1,3.309608E-1,-1.803242E-1,2.7541375E-1,4.0121278E-1,-7.715546E-2],"categories":[],"categories_nodes":[],"categories_segments":[],"categories_sizes":[],"default_left":[true,true,true,true,true,true,true,true,true,true,true,true,true,true,true,false,false,false,false,false,false,false,false,false,false,false,false,false,false,false,false],"id":52,"left_children":[1,3,5,7,9,11,13,15,17,19,21,23,25,27,29,-1,-1,-1,-1,-1,-1,-1,-1,-1,-1,-1,-1,-1,-1,-1,-1],"loss_changes":[5.280804E2,9.3216034E1,1.3220502E2,1.7516174E1,5.5286102E1,6.819351E1,5.1532246E1,6.856145E0,7.3531857E0,2.6256762E0,2.3629517E1,9.1857544E1,3.2768616E2,3.9348907E1,2.729598E1,0E0,0E0,0E0,0E0,0E0,0E0,0E0,0E0,0E0,0E0,0E0,0E0,0E0,0E0,0E0,0E0],"parents":[2147483647,0,0,1,1,2,2,3,3,4,4,5,5,6,6,7,7,8,8,9,9,10,10,11,11,12,12,13,13,14,14],"right_children":[2,4,6,8,10,12,14,16,18,20,22,24,26,28,30,-1,-1,-1,-1,-1,-1,-1,-1,-1,-1,-1,-1,-1,-1,-1,-1],"split_conditions":[2.75E1,1.415E2,5.25E1,1.23E2,5E-1,1.505E2,5E-1,2.35E1,2.15E1,2.405E2,1.615E2,5E-1,1.525E2,1.53E2,3.4E1,